net
{
  node_size = (100 30);

}


node LIKE
{
   label = ""; 
   position = ( 200 100 );
   states = ( "yes" "no" "unseen" );
}
node Has_Seen
{
   label = ""; 
   position = ( 197 126 );
   states = ( "yes" "no" );
}
node Str.ctr_79
{
   label = ""; 
   position = ( 187 150 );
   states = ( "r2=-3" "r3=-2" "r4=-1" "r5=0" "r6=1" "r7=2" "unseen" );
}
node age
{
   label = ""; 
   position = ( 171 171 );
   states = ( "yrs_0_15" "yrs_15_25" "yrs_25_33" "yrs_33_44" "yrs_44_110" );
}
node gender
{
   label = ""; 
   position = ( 150 187 );
   states = ( "F" "M" );
}
node occupation
{
   label = ""; 
   position = ( 126 197 );
   states = ( "administrator" "artist" "doctor" "educator" "engineer" "entertainment" "executive" "healthcare" "homemaker" "lawyer" "librarian" "marketing" "none" "other" "programmer" "retired" "salesman" "scientist" "student" "technician" "writer" );
}
node gnr_Advntr
{
   label = ""; 
   position = ( 100 200 );
   states = ( "no" "yes" );
}
node gnr_Cmdy
{
   label = ""; 
   position = ( 74 197 );
   states = ( "no" "yes" );
}
node gnr_Rmnc
{
   label = ""; 
   position = ( 50 187 );
   states = ( "no" "yes" );
}
node gnr_Drm
{
   label = ""; 
   position = ( 29 171 );
   states = ( "no" "yes" );
}
node gnr_Actn
{
   label = ""; 
   position = ( 13 150 );
   states = ( "no" "yes" );
}
node gnr_Thrllr
{
   label = ""; 
   position = ( 3 126 );
   states = ( "no" "yes" );
}
node gnr_Hrrr
{
   label = ""; 
   position = ( 0 100 );
   states = ( "no" "yes" );
}
node gnr_ScF
{
   label = ""; 
   position = ( 3 74 );
   states = ( "no" "yes" );
}
node LrLr_97
{
   label = ""; 
   position = ( 13 50 );
   states = ( "r1=-4" "r2=-3" "r3=-2" "r4=-1" "r5=0" "r6=1" "r7=2" "unseen" );
}
node Twstr_96
{
   label = ""; 
   position = ( 29 29 );
   states = ( "r2=-3" "r3=-2" "r4=-1" "r5=0" "r6=1" "r7=2" "unseen" );
}
node Int.mpr_94
{
   label = ""; 
   position = ( 50 13 );
   states = ( "r1=-4" "r2=-3" "r3=-2" "r4=-1" "r5=0" "r6=1" "r7=2" "r9=4" "unseen" );
}
node Str.pck_84
{
   label = ""; 
   position = ( 74 3 );
   states = ( "r2=-3" "r3=-2" "r4=-1" "r5=0" "r6=1" "r7=2" "unseen" );
}
node Str.gHm_86
{
   label = ""; 
   position = ( 100 0 );
   states = ( "r2=-3" "r3=-2" "r4=-1" "r5=0" "r6=1" "r7=2" "unseen" );
}
node Str.try_91
{
   label = ""; 
   position = ( 126 3 );
   states = ( "r2=-3" "r3=-2" "r4=-1" "r5=0" "r6=1" "r7=2" "r8=3" "unseen" );
}
node Otbrk_95
{
   label = ""; 
   position = ( 150 13 );
   states = ( "r2=-3" "r3=-2" "r4=-1" "r5=0" "r6=1" "r7=2" "unseen" );
}
node Str.tns_94
{
   label = ""; 
   position = ( 171 29 );
   states = ( "r2=-3" "r3=-2" "r4=-1" "r5=0" "r6=1" "r7=2" "unseen" );
}
node Opr.Drp_95
{
   label = ""; 
   position = ( 187 50 );
   states = ( "r2=-3" "r3=-2" "r4=-1" "r5=0" "r6=1" "unseen" );
}
node KssDth_95
{
   label = ""; 
   position = ( 197 74 );
   states = ( "r3=-2" "r4=-1" "r5=0" "r6=1" "unseen" );
}
potential ( LIKE | Str.ctr_79 )
{
   data = 
((0 1 0) 
 (0 1 0) 
 (0 1 0) 
 (1 0 0) 
 (1 0 0) 
 (1 0 0) 
 (0 0 1))
;
}
potential ( Has_Seen | Str.ctr_79 )
{
   data = 
((1 0) 
 (1 0) 
 (1 0) 
 (1 0) 
 (1 0) 
 (1 0) 
 (0 1))
;
}
potential ( Str.ctr_79 )
{
   data =  (0.00438861985472155 0.0202784503631961 0.0351089588377724 0.0457021791767555 0.0160411622276029 0.00332929782082324 0.875151331719128) ;
}

potential ( age | Str.ctr_79 )
{
   data = 
((0.00689655172413792 0.73103448275862 0.248275862068966 0.00689655172413792 0.00689655172413792) 
 (0.00149253731343284 0.158208955223881 0.367164179104478 0.21044776119403 0.262686567164179) 
 (0.000862068965517242 0.272413793103448 0.332758620689655 0.272413793103448 0.121551724137931) 
 (0.00066225165562914 0.209271523178808 0.325165562913907 0.325165562913907 0.139735099337748) 
 (0.00188679245283019 0.133962264150943 0.39811320754717 0.39811320754717 0.0679245283018868) 
 (0.0090909090909091 0.0090909090909091 0.327272727272727 0.327272727272727 0.327272727272727) 
 (0.0206121390281861 0.277226353103925 0.260280131419678 0.214283243991008 0.227598132457202))
;
}
potential ( gender | occupation Str.ctr_79 )
{
   data = 
(((0.5 0.5)  
  (0.00337837837837838 0.996621621621622)  
  (0.000848896434634975 0.999151103565365)  
  (0.00113122171945701 0.998868778280543)  
  (0.996621621621622 0.00337837837837838)  
  (0.5 0.5)  
  (0.5 0.5)) 
 ((0.5 0.5)  
  (0.996621621621622 0.00337837837837838)  
  (0.5 0.5)  
  (0.00337837837837838 0.996621621621622)  
  (0.5 0.5)  
  (0.5 0.5)  
  (0.46154852210306 0.53845147789694)) 
 ((0.5 0.5)  
  (0.5 0.5)  
  (0.5 0.5)  
  (0.5 0.5)  
  (0.5 0.5)  
  (0.5 0.5)  
  (0.000485436893203883 0.999514563106796)) 
 ((0.5 0.5)  
  (0.00337837837837838 0.996621621621622)  
  (0.00113122171945701 0.998868778280543)  
  (0.00169491525423729 0.998305084745763)  
  (0.00337837837837838 0.996621621621622)  
  (0.00337837837837838 0.996621621621622)  
  (0.29886630179828 0.70113369820172)) 
 ((0.00337837837837838 0.996621621621622)  
  (0.167044167610419 0.832955832389581)  
  (0.00113122171945701 0.998868778280543)  
  (0.000566251415628539 0.999433748584372)  
  (0.00169491525423729 0.998305084745763)  
  (0.5 0.5)  
  (0.0204747362576346 0.979525263742365)) 
 ((0.5 0.5)  
  (0.5 0.5)  
  (0.5 0.5)  
  (0.00169491525423729 0.998305084745763)  
  (0.5 0.5)  
  (0.5 0.5)  
  (0.125159371015725 0.874840628984275)) 
 ((0.5 0.5)  
  (0.5 0.5)  
  (0.5 0.5)  
  (0.00337837837837838 0.996621621621622)  
  (0.00337837837837838 0.996621621621622)  
  (0.5 0.5)  
  (0.100090682384947 0.899909317615053)) 
 ((0.5 0.5)  
  (0.5 0.5)  
  (0.996621621621622 0.00337837837837838)  
  (0.998305084745763 0.00169491525423729)  
  (0.996621621621622 0.00337837837837838)  
  (0.5 0.5)  
  (0.58328611898017 0.41671388101983)) 
 ((0.5 0.5)  
  (0.5 0.5)  
  (0.5 0.5)  
  (0.5 0.5)  
  (0.5 0.5)  
  (0.5 0.5)  
  (0.856796116504854 0.143203883495146)) 
 ((0.5 0.5)  
  (0.5 0.5)  
  (0.00169491525423729 0.998305084745763)  
  (0.5 0.5)  
  (0.5 0.5)  
  (0.5 0.5)  
  (0.200203942895989 0.799796057104011)) 
 ((0.5 0.5)  
  (0.996621621621622 0.00337837837837838)  
  (0.00337837837837838 0.996621621621622)  
  (0.333710407239819 0.666289592760181)  
  (0.00337837837837838 0.996621621621622)  
  (0.5 0.5)  
  (0.599984885126965 0.400015114873035)) 
 ((0.5 0.5)  
  (0.5 0.5)  
  (0.00337837837837838 0.996621621621622)  
  (0.00337837837837838 0.996621621621622)  
  (0.5 0.5)  
  (0.5 0.5)  
  (0.416690280532729 0.583309719467271)) 
 ((0.5 0.5)  
  (0.5 0.5)  
  (0.5 0.5)  
  (0.00337837837837838 0.996621621621622)  
  (0.5 0.5)  
  (0.5 0.5)  
  (0.5 0.5)) 
 ((0.5 0.5)  
  (0.00169491525423729 0.998305084745763)  
  (0.5 0.5)  
  (0.998305084745763 0.00169491525423729)  
  (0.00337837837837838 0.996621621621622)  
  (0.00337837837837838 0.996621621621622)  
  (0.340217391304348 0.659782608695652)) 
 ((0.5 0.5)  
  (0.00113122171945701 0.998868778280543)  
  (0.5 0.5)  
  (0.000485436893203883 0.999514563106796)  
  (0.000848896434634975 0.999151103565365)  
  (0.5 0.5)  
  (0.115434924787443 0.884565075212557)) 
 ((0.5 0.5)  
  (0.5 0.5)  
  (0.00337837837837838 0.996621621621622)  
  (0.5 0.5)  
  (0.5 0.5)  
  (0.5 0.5)  
  (0.0771443514644351 0.922855648535565)) 
 ((0.5 0.5)  
  (0.5 0.5)  
  (0.5 0.5)  
  (0.5 0.5)  
  (0.5 0.5)  
  (0.5 0.5)  
  (0.25014164305949 0.74985835694051)) 
 ((0.5 0.5)  
  (0.5 0.5)  
  (0.00337837837837838 0.996621621621622)  
  (0.00169491525423729 0.998305084745763)  
  (0.5 0.5)  
  (0.5 0.5)  
  (0.10723828030119 0.89276171969881)) 
 ((0.00169491525423729 0.998305084745763)  
  (0.00113122171945701 0.998868778280543)  
  (0.000566251415628539 0.999433748584372)  
  (0.000485436893203883 0.999514563106796)  
  (0.00169491525423729 0.998305084745763)  
  (0.5 0.5)  
  (0.340915239825301 0.659084760174699)) 
 ((0.5 0.5)  
  (0.5 0.5)  
  (0.000679347826086957 0.999320652173913)  
  (0.5 0.5)  
  (0.00337837837837838 0.996621621621622)  
  (0.00337837837837838 0.996621621621622)  
  (0.0501530091805508 0.949846990819449)) 
 ((0.00337837837837838 0.996621621621622)  
  (0.00337837837837838 0.996621621621622)  
  (0.00337837837837838 0.996621621621622)  
  (0.666289592760181 0.333710407239819)  
  (0.5 0.5)  
  (0.5 0.5)  
  (0.435908615277293 0.564091384722707)))
;
}
potential ( occupation | age Str.ctr_79 )
{
   data = 
(((0.0476190476190476 0.0476190476190476 0.0476190476190476 0.0476190476190476 0.0476190476190476 0.0476190476190476 0.0476190476190476 0.0476190476190476 0.0476190476190476 0.0476190476190476 0.0476190476190476 0.0476190476190476 0.0476190476190476 0.0476190476190476 0.0476190476190476 0.0476190476190476 0.0476190476190476 0.0476190476190476 0.0476190476190476 0.0476190476190476 0.0476190476190476)  
  (0.0476190476190476 0.0476190476190476 0.0476190476190476 0.0476190476190476 0.0476190476190476 0.0476190476190476 0.0476190476190476 0.0476190476190476 0.0476190476190476 0.0476190476190476 0.0476190476190476 0.0476190476190476 0.0476190476190476 0.0476190476190476 0.0476190476190476 0.0476190476190476 0.0476190476190476 0.0476190476190476 0.0476190476190476 0.0476190476190476 0.0476190476190476)  
  (0.0476190476190476 0.0476190476190476 0.0476190476190476 0.0476190476190476 0.0476190476190476 0.0476190476190476 0.0476190476190476 0.0476190476190476 0.0476190476190476 0.0476190476190476 0.0476190476190476 0.0476190476190476 0.0476190476190476 0.0476190476190476 0.0476190476190476 0.0476190476190476 0.0476190476190476 0.0476190476190476 0.0476190476190476 0.0476190476190476 0.0476190476190476)  
  (0.0476190476190476 0.0476190476190476 0.0476190476190476 0.0476190476190476 0.0476190476190476 0.0476190476190476 0.0476190476190476 0.0476190476190476 0.0476190476190476 0.0476190476190476 0.0476190476190476 0.0476190476190476 0.0476190476190476 0.0476190476190476 0.0476190476190476 0.0476190476190476 0.0476190476190476 0.0476190476190476 0.0476190476190476 0.0476190476190476 0.0476190476190476)  
  (0.0476190476190476 0.0476190476190476 0.0476190476190476 0.0476190476190476 0.0476190476190476 0.0476190476190476 0.0476190476190476 0.0476190476190476 0.0476190476190476 0.0476190476190476 0.0476190476190476 0.0476190476190476 0.0476190476190476 0.0476190476190476 0.0476190476190476 0.0476190476190476 0.0476190476190476 0.0476190476190476 0.0476190476190476 0.0476190476190476 0.0476190476190476)  
  (0.0476190476190476 0.0476190476190476 0.0476190476190476 0.0476190476190476 0.0476190476190476 0.0476190476190476 0.0476190476190476 0.0476190476190476 0.0476190476190476 0.0476190476190476 0.0476190476190476 0.0476190476190476 0.0476190476190476 0.0476190476190476 0.0476190476190476 0.0476190476190476 0.0476190476190476 0.0476190476190476 0.0476190476190476 0.0476190476190476 0.0476190476190476)  
  (7.98977309044423e-05 7.98977309044423e-05 7.98977309044423e-05 7.98977309044423e-05 7.98977309044423e-05 0.0588047299456695 7.98977309044423e-05 7.98977309044423e-05 7.98977309044423e-05 7.98977309044423e-05 7.98977309044423e-05 7.98977309044423e-05 0.117529562160435 0.0588047299456695 7.98977309044423e-05 7.98977309044423e-05 7.98977309044423e-05 7.98977309044423e-05 0.763502716522851 7.98977309044423e-05 7.98977309044423e-05)) 
 ((0.000449236298292902 0.000449236298292902 0.000449236298292902 0.000449236298292902 0.330637915543576 0.000449236298292902 0.000449236298292902 0.000449236298292902 0.000449236298292902 0.000449236298292902 0.000449236298292902 0.000449236298292902 0.000449236298292902 0.000449236298292902 0.000449236298292902 0.000449236298292902 0.000449236298292902 0.000449236298292902 0.330637915543576 0.000449236298292902 0.330637915543576)  
  (0.000449236298292902 0.000449236298292902 0.000449236298292902 0.000449236298292902 0.000449236298292902 0.000449236298292902 0.000449236298292902 0.000449236298292902 0.000449236298292902 0.000449236298292902 0.000449236298292902 0.000449236298292902 0.000449236298292902 0.000449236298292902 0.330637915543576 0.000449236298292902 0.000449236298292902 0.000449236298292902 0.660826594788859 0.000449236298292902 0.000449236298292902)  
  (0.110910186859554 0.000150693188667872 0.000150693188667872 0.000150693188667872 0.22166968053044 0.000150693188667872 0.000150693188667872 0.000150693188667872 0.000150693188667872 0.000150693188667872 0.000150693188667872 0.000150693188667872 0.000150693188667872 0.000150693188667872 0.000150693188667872 0.000150693188667872 0.000150693188667872 0.000150693188667872 0.553948161543098 0.110910186859554 0.000150693188667872)  
  (0.000150693188667872 0.000150693188667872 0.000150693188667872 0.000150693188667872 0.000150693188667872 0.000150693188667872 0.000150693188667872 0.110910186859554 0.000150693188667872 0.000150693188667872 0.000150693188667872 0.000150693188667872 0.110910186859554 0.000150693188667872 0.332429174201326 0.000150693188667872 0.000150693188667872 0.000150693188667872 0.443188667872212 0.000150693188667872 0.000150693188667872)  
  (0.000670690811535882 0.000670690811535882 0.000670690811535882 0.000670690811535882 0.000670690811535882 0.000670690811535882 0.000670690811535882 0.000670690811535882 0.000670690811535882 0.000670690811535882 0.493628437290409 0.000670690811535882 0.000670690811535882 0.000670690811535882 0.000670690811535882 0.000670690811535882 0.000670690811535882 0.000670690811535882 0.493628437290409 0.000670690811535882 0.000670690811535882)  
  (0.0476190476190476 0.0476190476190476 0.0476190476190476 0.0476190476190476 0.0476190476190476 0.0476190476190476 0.0476190476190476 0.0476190476190476 0.0476190476190476 0.0476190476190476 0.0476190476190476 0.0476190476190476 0.0476190476190476 0.0476190476190476 0.0476190476190476 0.0476190476190476 0.0476190476190476 0.0476190476190476 0.0476190476190476 0.0476190476190476 0.0476190476190476)  
  (0.0349360802205114 0.0393023476855812 5.940499952476e-06 0.0174710103602319 0.0436686151506511 0.0349360802205114 0.0087384754300922 5.940499952476e-06 0.0087384754300922 0.00437220796502234 0.00437220796502234 0.0087384754300922 0.00437220796502234 0.100430092196559 0.0436686151506511 5.940499952476e-06 0.0131047428951621 0.0131047428951621 0.554521908563825 0.0305698127554415 0.0349360802205114)) 
 ((0.00132275132275132 0.00132275132275132 0.00132275132275132 0.00132275132275132 0.00132275132275132 0.00132275132275132 0.00132275132275132 0.00132275132275132 0.00132275132275132 0.00132275132275132 0.00132275132275132 0.00132275132275132 0.00132275132275132 0.00132275132275132 0.00132275132275132 0.00132275132275132 0.00132275132275132 0.00132275132275132 0.973544973544974 0.00132275132275132 0.00132275132275132)  
  (0.000193573364305072 0.142469996128533 0.000193573364305072 0.000193573364305072 0.427022841656988 0.000193573364305072 0.000193573364305072 0.000193573364305072 0.000193573364305072 0.000193573364305072 0.000193573364305072 0.000193573364305072 0.000193573364305072 0.142469996128533 0.000193573364305072 0.000193573364305072 0.000193573364305072 0.000193573364305072 0.142469996128533 0.000193573364305072 0.142469996128533)  
  (0.0907969405378731 0.000123365408339502 0.000123365408339502 0.000123365408339502 0.000123365408339502 0.000123365408339502 0.000123365408339502 0.000123365408339502 0.000123365408339502 0.0907969405378731 0.0907969405378731 0.000123365408339502 0.0907969405378731 0.181470515667407 0.000123365408339502 0.000123365408339502 0.000123365408339502 0.0907969405378731 0.0907969405378731 0.272144090796941 0.000123365408339502)  
  (9.69838037047814e-05 0.0713800795267191 9.69838037047814e-05 0.0713800795267191 0.0713800795267191 0.142663175249733 0.0713800795267191 9.69838037047814e-05 9.69838037047814e-05 9.69838037047814e-05 0.0713800795267191 9.69838037047814e-05 9.69838037047814e-05 0.0713800795267191 0.0713800795267191 9.69838037047814e-05 9.69838037047814e-05 0.0713800795267191 0.142663175249733 9.69838037047814e-05 0.142663175249733)  
  (0.166102459941323 0.000225682690137666 0.000225682690137666 0.000225682690137666 0.166102459941323 0.000225682690137666 0.000225682690137666 0.000225682690137666 0.000225682690137666 0.000225682690137666 0.000225682690137666 0.000225682690137666 0.000225682690137666 0.000225682690137666 0.331979237192506 0.000225682690137666 0.000225682690137666 0.000225682690137666 0.166102459941323 0.166102459941323 0.000225682690137666)  
  (0.00132275132275132 0.00132275132275132 0.00132275132275132 0.00132275132275132 0.00132275132275132 0.00132275132275132 0.00132275132275132 0.00132275132275132 0.00132275132275132 0.00132275132275132 0.00132275132275132 0.00132275132275132 0.00132275132275132 0.973544973544974 0.00132275132275132 0.00132275132275132 0.00132275132275132 0.00132275132275132 0.00132275132275132 0.00132275132275132 0.00132275132275132)  
  (0.0930172228338584 0.032560140718525 0.00930741682801209 0.102318312390064 0.0604634093871404 0.0139579616061147 0.04186123027473 0.0186085063842173 0.00930741682801209 0.0186085063842173 0.0744150437214481 0.032560140718525 0.00930741682801209 0.125571036280577 0.111619401946269 6.32727180694227e-06 0.0139579616061147 0.04186123027473 0.134872125836782 0.0139579616061147 0.04186123027473)) 
 ((0.0476190476190476 0.0476190476190476 0.0476190476190476 0.0476190476190476 0.0476190476190476 0.0476190476190476 0.0476190476190476 0.0476190476190476 0.0476190476190476 0.0476190476190476 0.0476190476190476 0.0476190476190476 0.0476190476190476 0.0476190476190476 0.0476190476190476 0.0476190476190476 0.0476190476190476 0.0476190476190476 0.0476190476190476 0.0476190476190476 0.0476190476190476)  
  (0.248564674096589 0.000337723741979061 0.000337723741979061 0.000337723741979061 0.496791624451199 0.000337723741979061 0.000337723741979061 0.000337723741979061 0.000337723741979061 0.000337723741979061 0.000337723741979061 0.000337723741979061 0.000337723741979061 0.248564674096589 0.000337723741979061 0.000337723741979061 0.000337723741979061 0.000337723741979061 0.000337723741979061 0.000337723741979061 0.000337723741979061)  
  (0.000150693188667872 0.000150693188667872 0.000150693188667872 0.22166968053044 0.110910186859554 0.000150693188667872 0.000150693188667872 0.110910186859554 0.000150693188667872 0.110910186859554 0.000150693188667872 0.110910186859554 0.110910186859554 0.000150693188667872 0.000150693188667872 0.000150693188667872 0.000150693188667872 0.000150693188667872 0.000150693188667872 0.110910186859554 0.110910186859554)  
  (0.071380079526719 9.69838037047814e-05 9.69838037047814e-05 9.69838037047814e-05 0.285229366695762 9.69838037047814e-05 9.69838037047814e-05 9.69838037047814e-05 9.69838037047814e-05 9.69838037047814e-05 0.142663175249733 0.071380079526719 9.69838037047814e-05 0.071380079526719 0.142663175249733 9.69838037047814e-05 9.69838037047814e-05 0.071380079526719 0.071380079526719 9.69838037047814e-05 0.071380079526719)  
  (0.000225682690137666 0.000225682690137666 0.000225682690137666 0.000225682690137666 0.166102459941323 0.000225682690137666 0.166102459941323 0.166102459941323 0.000225682690137666 0.000225682690137666 0.000225682690137666 0.000225682690137666 0.000225682690137666 0.166102459941323 0.331979237192506 0.000225682690137666 0.000225682690137666 0.000225682690137666 0.000225682690137666 0.000225682690137666 0.000225682690137666)  
  (0.00132275132275132 0.00132275132275132 0.00132275132275132 0.973544973544974 0.00132275132275132 0.00132275132275132 0.00132275132275132 0.00132275132275132 0.00132275132275132 0.00132275132275132 0.00132275132275132 0.00132275132275132 0.00132275132275132 0.00132275132275132 0.00132275132275132 0.00132275132275132 0.00132275132275132 0.00132275132275132 0.00132275132275132 0.00132275132275132 0.00132275132275132)  
  (0.107334993390513 0.0395493252174982 0.00565649113099081 0.129930216114851 0.0847397706661748 0.0113052968120754 0.0508469365796674 0.00565649113099081 0.0113052968120754 0.00565649113099081 0.0621445479418365 0.0564957422607519 7.68544990623751e-06 0.141227827477021 0.0677933536229211 7.68544990623751e-06 0.01695410249316 0.0734421593040057 0.0395493252174982 0.0339005195364137 0.0564957422607519)) 
 ((0.0476190476190476 0.0476190476190476 0.0476190476190476 0.0476190476190476 0.0476190476190476 0.0476190476190476 0.0476190476190476 0.0476190476190476 0.0476190476190476 0.0476190476190476 0.0476190476190476 0.0476190476190476 0.0476190476190476 0.0476190476190476 0.0476190476190476 0.0476190476190476 0.0476190476190476 0.0476190476190476 0.0476190476190476 0.0476190476190476 0.0476190476190476)  
  (0.000270562770562771 0.000270562770562771 0.000270562770562771 0.199134199134199 0.199134199134199 0.000270562770562771 0.000270562770562771 0.000270562770562771 0.000270562770562771 0.000270562770562771 0.199134199134199 0.000270562770562771 0.000270562770562771 0.000270562770562771 0.397997835497835 0.000270562770562771 0.000270562770562771 0.000270562770562771 0.000270562770562771 0.000270562770562771 0.000270562770562771)  
  (0.496791624451199 0.000337723741979061 0.000337723741979061 0.248564674096589 0.000337723741979061 0.000337723741979061 0.000337723741979061 0.000337723741979061 0.000337723741979061 0.000337723741979061 0.000337723741979061 0.000337723741979061 0.000337723741979061 0.000337723741979061 0.000337723741979061 0.248564674096589 0.000337723741979061 0.000337723741979061 0.000337723741979061 0.000337723741979061 0.000337723741979061)  
  (0.331979237192506 0.000225682690137666 0.000225682690137666 0.166102459941323 0.166102459941323 0.000225682690137666 0.000225682690137666 0.166102459941323 0.000225682690137666 0.000225682690137666 0.000225682690137666 0.000225682690137666 0.000225682690137666 0.000225682690137666 0.166102459941323 0.000225682690137666 0.000225682690137666 0.000225682690137666 0.000225682690137666 0.000225682690137666 0.000225682690137666)  
  (0.00132275132275132 0.00132275132275132 0.00132275132275132 0.973544973544974 0.00132275132275132 0.00132275132275132 0.00132275132275132 0.00132275132275132 0.00132275132275132 0.00132275132275132 0.00132275132275132 0.00132275132275132 0.00132275132275132 0.00132275132275132 0.00132275132275132 0.00132275132275132 0.00132275132275132 0.00132275132275132 0.00132275132275132 0.00132275132275132 0.00132275132275132)  
  (0.00132275132275132 0.00132275132275132 0.00132275132275132 0.00132275132275132 0.00132275132275132 0.00132275132275132 0.00132275132275132 0.00132275132275132 0.00132275132275132 0.00132275132275132 0.00132275132275132 0.00132275132275132 0.00132275132275132 0.00132275132275132 0.00132275132275132 0.00132275132275132 0.00132275132275132 0.00132275132275132 0.00132275132275132 0.973544973544974 0.00132275132275132)  
  (0.122329071424954 0.0159622578707824 0.021280598548491 0.202104181590582 0.0585089832924509 0.0106439171930739 0.0531906426147423 0.0372356205816166 0.0053255765153653 0.021280598548491 0.0904190273587022 0.0265989392261995 0.0053255765153653 0.111692390069536 0.0319172799039081 0.069145664647868 0.0159622578707824 0.0159622578707824 7.23583765674633e-06 0.021280598548491 0.0638273239701594)))
;
}
potential ( gnr_Advntr | gnr_Actn Str.ctr_79 )
{
   data = 
(((0.988372093023256 0.0116279069767442)  
  (0.997907949790795 0.00209205020920502)  
  (0.998886414253898 0.00111358574610245)  
  (0.99906191369606 0.000938086303939962)  
  (0.997630331753555 0.0023696682464455)  
  (0.982758620689655 0.0172413793103448)  
  (0.999955638363943 4.43616360571378e-05)) 
 ((0.966666666666667 0.0333333333333333)  
  (0.5 0.5)  
  (0.966666666666667 0.0333333333333333)  
  (0.992957746478873 0.00704225352112676)  
  (0.5 0.5)  
  (0.966666666666667 0.0333333333333333)  
  (0.855932203389831 0.144067796610169)))
;
}
potential ( gnr_Cmdy | occupation Str.ctr_79 )
{
   data = 
(((0.5 0.5)  
  (0.996621621621622 0.00337837837837838)  
  (0.749575551782683 0.250424448217317)  
  (0.998868778280543 0.00113122171945701)  
  (0.996621621621622 0.00337837837837838)  
  (0.5 0.5)  
  (0.885676804975221 0.114323195024779)) 
 ((0.5 0.5)  
  (0.996621621621622 0.00337837837837838)  
  (0.5 0.5)  
  (0.996621621621622 0.00337837837837838)  
  (0.5 0.5)  
  (0.5 0.5)  
  (0.999869212660215 0.000130787339785509)) 
 ((0.5 0.5)  
  (0.5 0.5)  
  (0.5 0.5)  
  (0.5 0.5)  
  (0.5 0.5)  
  (0.5 0.5)  
  (0.999514563106796 0.000485436893203883)) 
 ((0.5 0.5)  
  (0.996621621621622 0.00337837837837838)  
  (0.998868778280543 0.00113122171945701)  
  (0.998305084745763 0.00169491525423729)  
  (0.996621621621622 0.00337837837837838)  
  (0.996621621621622 0.00337837837837838)  
  (0.965480844409695 0.0345191555903049)) 
 ((0.996621621621622 0.00337837837837838)  
  (0.999433748584372 0.000566251415628539)  
  (0.998868778280543 0.00113122171945701)  
  (0.999433748584372 0.000566251415628539)  
  (0.998305084745763 0.00169491525423729)  
  (0.5 0.5)  
  (0.918309272626319 0.0816907273736813)) 
 ((0.5 0.5)  
  (0.5 0.5)  
  (0.5 0.5)  
  (0.998305084745763 0.00169491525423729)  
  (0.5 0.5)  
  (0.5 0.5)  
  (0.874840628984275 0.125159371015725)) 
 ((0.5 0.5)  
  (0.5 0.5)  
  (0.5 0.5)  
  (0.996621621621622 0.00337837837837838)  
  (0.996621621621622 0.00337837837837838)  
  (0.5 0.5)  
  (0.933235094082974 0.0667649059170256)) 
 ((0.5 0.5)  
  (0.5 0.5)  
  (0.996621621621622 0.00337837837837838)  
  (0.998305084745763 0.00169491525423729)  
  (0.996621621621622 0.00337837837837838)  
  (0.5 0.5)  
  (0.91643059490085 0.0835694050991501)) 
 ((0.5 0.5)  
  (0.5 0.5)  
  (0.5 0.5)  
  (0.5 0.5)  
  (0.5 0.5)  
  (0.5 0.5)  
  (0.999514563106796 0.000485436893203883)) 
 ((0.5 0.5)  
  (0.5 0.5)  
  (0.998305084745763 0.00169491525423729)  
  (0.5 0.5)  
  (0.5 0.5)  
  (0.5 0.5)  
  (0.899728076138681 0.100271923861319)) 
 ((0.5 0.5)  
  (0.996621621621622 0.00337837837837838)  
  (0.996621621621622 0.00337837837837838)  
  (0.998868778280543 0.00113122171945701)  
  (0.996621621621622 0.00337837837837838)  
  (0.5 0.5)  
  (0.911048972188634 0.0889510278113664)) 
 ((0.5 0.5)  
  (0.5 0.5)  
  (0.996621621621622 0.00337837837837838)  
  (0.996621621621622 0.00337837837837838)  
  (0.5 0.5)  
  (0.5 0.5)  
  (0.999858316803627 0.00014168319637291)) 
 ((0.5 0.5)  
  (0.5 0.5)  
  (0.998305084745763 0.00169491525423729)  
  (0.996621621621622 0.00337837837837838)  
  (0.5 0.5)  
  (0.5 0.5)  
  (0.832955832389581 0.167044167610419)) 
 ((0.5 0.5)  
  (0.998305084745763 0.00169491525423729)  
  (0.5 0.5)  
  (0.998305084745763 0.00169491525423729)  
  (0.996621621621622 0.00337837837837838)  
  (0.996621621621622 0.00337837837837838)  
  (0.938113604488079 0.0618863955119215)) 
 ((0.5 0.5)  
  (0.998868778280543 0.00113122171945701)  
  (0.5 0.5)  
  (0.856796116504854 0.143203883495146)  
  (0.999151103565365 0.000848896434634975)  
  (0.5 0.5)  
  (0.942249836494441 0.0577501635055592)) 
 ((0.5 0.5)  
  (0.5 0.5)  
  (0.996621621621622 0.00337837837837838)  
  (0.5 0.5)  
  (0.5 0.5)  
  (0.5 0.5)  
  (0.84597280334728 0.15402719665272)) 
 ((0.5 0.5)  
  (0.5 0.5)  
  (0.5 0.5)  
  (0.5 0.5)  
  (0.5 0.5)  
  (0.5 0.5)  
  (0.83314447592068 0.16685552407932)) 
 ((0.5 0.5)  
  (0.5 0.5)  
  (0.996621621621622 0.00337837837837838)  
  (0.998305084745763 0.00169491525423729)  
  (0.5 0.5)  
  (0.5 0.5)  
  (0.96417294146223 0.0358270585377702)) 
 ((0.998305084745763 0.00169491525423729)  
  (0.998868778280543 0.00113122171945701)  
  (0.999433748584372 0.000566251415628539)  
  (0.999514563106796 0.000485436893203883)  
  (0.998305084745763 0.00169491525423729)  
  (0.5 0.5)  
  (0.948846287635759 0.0511537123642407)) 
 ((0.5 0.5)  
  (0.5 0.5)  
  (0.799592391304348 0.200407608695652)  
  (0.5 0.5)  
  (0.996621621621622 0.00337837837837838)  
  (0.996621621621622 0.00337837837837838)  
  (0.999829989799388 0.000170010200612037)) 
 ((0.00337837837837838 0.996621621621622)  
  (0.996621621621622 0.00337837837837838)  
  (0.996621621621622 0.00337837837837838)  
  (0.998868778280543 0.00113122171945701)  
  (0.5 0.5)  
  (0.5 0.5)  
  (0.923003139169864 0.076996860830136)))
;
}
potential ( gnr_Rmnc | Int.mpr_94 Str.ctr_79 )
{
   data = 
(((0.5 0.5)  
  (0.5 0.5)  
  (0.5 0.5)  
  (0.5 0.5)  
  (0.5 0.5)  
  (0.5 0.5)  
  (0.0078125 0.9921875)) 
 ((0.5 0.5)  
  (0.5 0.5)  
  (0.5 0.5)  
  (0.5 0.5)  
  (0.5 0.5)  
  (0.5 0.5)  
  (0.997368421052632 0.00263157894736842)) 
 ((0.5 0.5)  
  (0.5 0.5)  
  (0.996062992125984 0.00393700787401575)  
  (0.5 0.5)  
  (0.9921875 0.0078125)  
  (0.5 0.5)  
  (0.999207606973059 0.000792393026941363)) 
 ((0.5 0.5)  
  (0.998417721518987 0.00158227848101266)  
  (0.999009900990099 0.00099009900990099)  
  (0.998417721518987 0.00158227848101266)  
  (0.9921875 0.0078125)  
  (0.5 0.5)  
  (0.999706227967098 0.000293772032902468)) 
 ((0.9921875 0.0078125)  
  (0.9921875 0.0078125)  
  (0.99802371541502 0.00197628458498024)  
  (0.999009900990099 0.00099009900990099)  
  (0.99868073878628 0.00131926121372032)  
  (0.9921875 0.0078125)  
  (0.999735589635114 0.000264410364886303)) 
 ((0.5 0.5)  
  (0.5 0.5)  
  (0.997368421052632 0.00263157894736842)  
  (0.99802371541502 0.00197628458498024)  
  (0.9921875 0.0078125)  
  (0.5 0.5)  
  (0.999279538904899 0.000720461095100865)) 
 ((0.5 0.5)  
  (0.5 0.5)  
  (0.5 0.5)  
  (0.5 0.5)  
  (0.5 0.5)  
  (0.5 0.5)  
  (0.997368421052632 0.00263157894736842)) 
 ((0.5 0.5)  
  (0.5 0.5)  
  (0.5 0.5)  
  (0.9921875 0.0078125)  
  (0.5 0.5)  
  (0.5 0.5)  
  (0.5 0.5)) 
 ((0.997368421052632 0.00263157894736842)  
  (0.999390243902439 0.000609756097560976)  
  (0.999504459861249 0.000495540138751239)  
  (0.999682741116751 0.000317258883248731)  
  (0.99868073878628 0.00131926121372032)  
  (0.996062992125984 0.00393700787401575)  
  (0.993241795904378 0.00675820409562163)))
;
}
potential ( gnr_Drm | occupation Str.ctr_79 )
{
   data = 
(((0.5 0.5)  
  (0.996621621621622 0.00337837837837838)  
  (0.999151103565365 0.000848896434634975)  
  (0.333710407239819 0.666289592760181)  
  (0.996621621621622 0.00337837837837838)  
  (0.5 0.5)  
  (0.485715673889807 0.514284326110193)) 
 ((0.5 0.5)  
  (0.996621621621622 0.00337837837837838)  
  (0.5 0.5)  
  (0.996621621621622 0.00337837837837838)  
  (0.5 0.5)  
  (0.5 0.5)  
  (0.384645566309181 0.615354433690819)) 
 ((0.5 0.5)  
  (0.5 0.5)  
  (0.5 0.5)  
  (0.5 0.5)  
  (0.5 0.5)  
  (0.5 0.5)  
  (0.285922330097087 0.714077669902913)) 
 ((0.5 0.5)  
  (0.996621621621622 0.00337837837837838)  
  (0.666289592760181 0.333710407239819)  
  (0.5 0.5)  
  (0.996621621621622 0.00337837837837838)  
  (0.996621621621622 0.00337837837837838)  
  (0.29886630179828 0.70113369820172)) 
 ((0.996621621621622 0.00337837837837838)  
  (0.832955832389581 0.167044167610419)  
  (0.998868778280543 0.00113122171945701)  
  (0.832955832389581 0.167044167610419)  
  (0.5 0.5)  
  (0.5 0.5)  
  (0.551013325930039 0.448986674069961)) 
 ((0.5 0.5)  
  (0.5 0.5)  
  (0.5 0.5)  
  (0.998305084745763 0.00169491525423729)  
  (0.5 0.5)  
  (0.5 0.5)  
  (0.375053123671908 0.624946876328092)) 
 ((0.5 0.5)  
  (0.5 0.5)  
  (0.5 0.5)  
  (0.996621621621622 0.00337837837837838)  
  (0.996621621621622 0.00337837837837838)  
  (0.5 0.5)  
  (0.533325776467921 0.466674223532079)) 
 ((0.5 0.5)  
  (0.5 0.5)  
  (0.00337837837837838 0.996621621621622)  
  (0.00169491525423729 0.998305084745763)  
  (0.996621621621622 0.00337837837837838)  
  (0.5 0.5)  
  (0.41671388101983 0.58328611898017)) 
 ((0.5 0.5)  
  (0.5 0.5)  
  (0.5 0.5)  
  (0.5 0.5)  
  (0.5 0.5)  
  (0.5 0.5)  
  (0.428640776699029 0.571359223300971)) 
 ((0.5 0.5)  
  (0.5 0.5)  
  (0.5 0.5)  
  (0.5 0.5)  
  (0.5 0.5)  
  (0.5 0.5)  
  (0.200203942895989 0.799796057104011)) 
 ((0.5 0.5)  
  (0.00337837837837838 0.996621621621622)  
  (0.00337837837837838 0.996621621621622)  
  (0.666289592760181 0.333710407239819)  
  (0.996621621621622 0.00337837837837838)  
  (0.5 0.5)  
  (0.200045344619105 0.799954655380895)) 
 ((0.5 0.5)  
  (0.5 0.5)  
  (0.996621621621622 0.00337837837837838)  
  (0.996621621621622 0.00337837837837838)  
  (0.5 0.5)  
  (0.5 0.5)  
  (0.166761122130915 0.833238877869085)) 
 ((0.5 0.5)  
  (0.5 0.5)  
  (0.998305084745763 0.00169491525423729)  
  (0.996621621621622 0.00337837837837838)  
  (0.5 0.5)  
  (0.5 0.5)  
  (0.66647791619479 0.33352208380521)) 
 ((0.5 0.5)  
  (0.998305084745763 0.00169491525423729)  
  (0.998305084745763 0.00169491525423729)  
  (0.5 0.5)  
  (0.996621621621622 0.00337837837837838)  
  (0.996621621621622 0.00337837837837838)  
  (0.49484572230014 0.50515427769986)) 
 ((0.5 0.5)  
  (0.998868778280543 0.00113122171945701)  
  (0.5 0.5)  
  (0.856796116504854 0.143203883495146)  
  (0.749575551782683 0.250424448217317)  
  (0.5 0.5)  
  (0.673054283845651 0.326945716154349)) 
 ((0.5 0.5)  
  (0.5 0.5)  
  (0.996621621621622 0.00337837837837838)  
  (0.5 0.5)  
  (0.5 0.5)  
  (0.5 0.5)  
  (0.307792887029289 0.692207112970711)) 
 ((0.5 0.5)  
  (0.5 0.5)  
  (0.5 0.5)  
  (0.5 0.5)  
  (0.5 0.5)  
  (0.5 0.5)  
  (0.66657223796034 0.33342776203966)) 
 ((0.5 0.5)  
  (0.5 0.5)  
  (0.996621621621622 0.00337837837837838)  
  (0.998305084745763 0.00169491525423729)  
  (0.5 0.5)  
  (0.5 0.5)  
  (0.32147194559145 0.67852805440855)) 
 ((0.998305084745763 0.00169491525423729)  
  (0.998868778280543 0.00113122171945701)  
  (0.999433748584372 0.000566251415628539)  
  (0.856796116504854 0.143203883495146)  
  (0.998305084745763 0.00169491525423729)  
  (0.5 0.5)  
  (0.721582344529046 0.278417655470954)) 
 ((0.5 0.5)  
  (0.5 0.5)  
  (0.599864130434783 0.400135869565217)  
  (0.5 0.5)  
  (0.996621621621622 0.00337837837837838)  
  (0.996621621621622 0.00337837837837838)  
  (0.799897993879633 0.200102006120367)) 
 ((0.996621621621622 0.00337837837837838)  
  (0.996621621621622 0.00337837837837838)  
  (0.996621621621622 0.00337837837837838)  
  (0.666289592760181 0.333710407239819)  
  (0.5 0.5)  
  (0.5 0.5)  
  (0.487181723055459 0.512818276944541)))
;
}
potential ( gnr_Actn | occupation Str.ctr_79 )
{
   data = 
(((0.5 0.5)  
  (0.996621621621622 0.00337837837837838)  
  (0.999151103565365 0.000848896434634975)  
  (0.998868778280543 0.00113122171945701)  
  (0.996621621621622 0.00337837837837838)  
  (0.5 0.5)  
  (0.957098435526188 0.0429015644738121)) 
 ((0.5 0.5)  
  (0.996621621621622 0.00337837837837838)  
  (0.5 0.5)  
  (0.00337837837837838 0.996621621621622)  
  (0.5 0.5)  
  (0.5 0.5)  
  (0.999869212660215 0.000130787339785509)) 
 ((0.5 0.5)  
  (0.5 0.5)  
  (0.5 0.5)  
  (0.5 0.5)  
  (0.5 0.5)  
  (0.5 0.5)  
  (0.999514563106796 0.000485436893203883)) 
 ((0.5 0.5)  
  (0.996621621621622 0.00337837837837838)  
  (0.998868778280543 0.00113122171945701)  
  (0.998305084745763 0.00169491525423729)  
  (0.996621621621622 0.00337837837837838)  
  (0.996621621621622 0.00337837837837838)  
  (0.988467552775606 0.0115324472243941)) 
 ((0.00337837837837838 0.996621621621622)  
  (0.832955832389581 0.167044167610419)  
  (0.998868778280543 0.00113122171945701)  
  (0.999433748584372 0.000566251415628539)  
  (0.998305084745763 0.00169491525423729)  
  (0.5 0.5)  
  (0.999930594114381 6.94058856191005e-05)) 
 ((0.5 0.5)  
  (0.5 0.5)  
  (0.5 0.5)  
  (0.998305084745763 0.00169491525423729)  
  (0.5 0.5)  
  (0.5 0.5)  
  (0.999787505312367 0.000212494687632809)) 
 ((0.5 0.5)  
  (0.5 0.5)  
  (0.5 0.5)  
  (0.996621621621622 0.00337837837837838)  
  (0.996621621621622 0.00337837837837838)  
  (0.5 0.5)  
  (0.999886647018817 0.000113352981183405)) 
 ((0.5 0.5)  
  (0.5 0.5)  
  (0.996621621621622 0.00337837837837838)  
  (0.998305084745763 0.00169491525423729)  
  (0.996621621621622 0.00337837837837838)  
  (0.5 0.5)  
  (0.99971671388102 0.00028328611898017)) 
 ((0.5 0.5)  
  (0.5 0.5)  
  (0.5 0.5)  
  (0.5 0.5)  
  (0.5 0.5)  
  (0.5 0.5)  
  (0.999514563106796 0.000485436893203883)) 
 ((0.5 0.5)  
  (0.5 0.5)  
  (0.998305084745763 0.00169491525423729)  
  (0.5 0.5)  
  (0.5 0.5)  
  (0.5 0.5)  
  (0.999660095173352 0.000339904826648538)) 
 ((0.5 0.5)  
  (0.996621621621622 0.00337837837837838)  
  (0.996621621621622 0.00337837837837838)  
  (0.998868778280543 0.00113122171945701)  
  (0.996621621621622 0.00337837837837838)  
  (0.5 0.5)  
  (0.999924425634825 7.55743651753325e-05)) 
 ((0.5 0.5)  
  (0.5 0.5)  
  (0.996621621621622 0.00337837837837838)  
  (0.996621621621622 0.00337837837837838)  
  (0.5 0.5)  
  (0.5 0.5)  
  (0.999858316803627 0.00014168319637291)) 
 ((0.5 0.5)  
  (0.5 0.5)  
  (0.998305084745763 0.00169491525423729)  
  (0.996621621621622 0.00337837837837838)  
  (0.5 0.5)  
  (0.5 0.5)  
  (0.999433748584372 0.000566251415628539)) 
 ((0.5 0.5)  
  (0.998305084745763 0.00169491525423729)  
  (0.998305084745763 0.00169491525423729)  
  (0.998305084745763 0.00169491525423729)  
  (0.996621621621622 0.00337837837837838)  
  (0.996621621621622 0.00337837837837838)  
  (0.989656381486676 0.010343618513324)) 
 ((0.5 0.5)  
  (0.998868778280543 0.00113122171945701)  
  (0.5 0.5)  
  (0.714077669902913 0.285922330097087)  
  (0.999151103565365 0.000848896434634975)  
  (0.5 0.5)  
  (0.942249836494441 0.0577501635055592)) 
 ((0.5 0.5)  
  (0.5 0.5)  
  (0.996621621621622 0.00337837837837838)  
  (0.5 0.5)  
  (0.5 0.5)  
  (0.5 0.5)  
  (0.922855648535565 0.0771443514644351)) 
 ((0.5 0.5)  
  (0.5 0.5)  
  (0.5 0.5)  
  (0.5 0.5)  
  (0.5 0.5)  
  (0.5 0.5)  
  (0.91643059490085 0.0835694050991501)) 
 ((0.5 0.5)  
  (0.5 0.5)  
  (0.00337837837837838 0.996621621621622)  
  (0.5 0.5)  
  (0.5 0.5)  
  (0.5 0.5)  
  (0.99987855234394 0.000121447656060238)) 
 ((0.998305084745763 0.00169491525423729)  
  (0.666289592760181 0.333710407239819)  
  (0.999433748584372 0.000566251415628539)  
  (0.856796116504854 0.143203883495146)  
  (0.998305084745763 0.00169491525423729)  
  (0.5 0.5)  
  (0.943164689058091 0.0568353109419086)) 
 ((0.5 0.5)  
  (0.5 0.5)  
  (0.999320652173913 0.000679347826086957)  
  (0.5 0.5)  
  (0.996621621621622 0.00337837837837838)  
  (0.00337837837837838 0.996621621621622)  
  (0.999829989799388 0.000170010200612037)) 
 ((0.996621621621622 0.00337837837837838)  
  (0.996621621621622 0.00337837837837838)  
  (0.996621621621622 0.00337837837837838)  
  (0.998868778280543 0.00113122171945701)  
  (0.5 0.5)  
  (0.5 0.5)  
  (0.974276246948029 0.0257237530519707)))
;
}
potential ( gnr_Thrllr | gnr_Actn Str.ctr_79 )
{
   data = 
(((0.988372093023256 0.0116279069767442)  
  (0.939330543933054 0.0606694560669456)  
  (0.967706013363029 0.032293986636971)  
  (0.972795497185741 0.0272045028142589)  
  (0.997630331753555 0.0023696682464455)  
  (0.982758620689655 0.0172413793103448)  
  (0.950270605979949 0.0497293940200514)) 
 ((0.966666666666667 0.0333333333333333)  
  (0.982758620689655 0.0172413793103448)  
  (0.966666666666667 0.0333333333333333)  
  (0.992957746478873 0.00704225352112676)  
  (0.5 0.5)  
  (0.966666666666667 0.0333333333333333)  
  (0.476271186440678 0.523728813559322)))
;
}
potential ( gnr_Hrrr | Int.mpr_94 Str.ctr_79 )
{
   data = 
(((0.5 0.5)  
  (0.5 0.5)  
  (0.5 0.5)  
  (0.5 0.5)  
  (0.5 0.5)  
  (0.5 0.5)  
  (0.9921875 0.0078125)) 
 ((0.5 0.5)  
  (0.5 0.5)  
  (0.5 0.5)  
  (0.5 0.5)  
  (0.5 0.5)  
  (0.5 0.5)  
  (0.997368421052632 0.00263157894736842)) 
 ((0.5 0.5)  
  (0.5 0.5)  
  (0.996062992125984 0.00393700787401575)  
  (0.5 0.5)  
  (0.9921875 0.0078125)  
  (0.5 0.5)  
  (0.999207606973059 0.000792393026941363)) 
 ((0.5 0.5)  
  (0.998417721518987 0.00158227848101266)  
  (0.999009900990099 0.00099009900990099)  
  (0.998417721518987 0.00158227848101266)  
  (0.9921875 0.0078125)  
  (0.5 0.5)  
  (0.999706227967098 0.000293772032902468)) 
 ((0.9921875 0.0078125)  
  (0.9921875 0.0078125)  
  (0.99802371541502 0.00197628458498024)  
  (0.999009900990099 0.00099009900990099)  
  (0.99868073878628 0.00131926121372032)  
  (0.9921875 0.0078125)  
  (0.833157059756742 0.166842940243258)) 
 ((0.5 0.5)  
  (0.5 0.5)  
  (0.997368421052632 0.00263157894736842)  
  (0.99802371541502 0.00197628458498024)  
  (0.9921875 0.0078125)  
  (0.5 0.5)  
  (0.999279538904899 0.000720461095100865)) 
 ((0.5 0.5)  
  (0.5 0.5)  
  (0.5 0.5)  
  (0.5 0.5)  
  (0.5 0.5)  
  (0.5 0.5)  
  (0.997368421052632 0.00263157894736842)) 
 ((0.5 0.5)  
  (0.5 0.5)  
  (0.5 0.5)  
  (0.9921875 0.0078125)  
  (0.5 0.5)  
  (0.5 0.5)  
  (0.5 0.5)) 
 ((0.997368421052632 0.00263157894736842)  
  (0.999390243902439 0.000609756097560976)  
  (0.999504459861249 0.000495540138751239)  
  (0.999682741116751 0.000317258883248731)  
  (0.99868073878628 0.00131926121372032)  
  (0.996062992125984 0.00393700787401575)  
  (0.998639790934796 0.00136020906520435)))
;
}
potential ( gnr_ScF | occupation Str.ctr_79 )
{
   data = 
(((0.5 0.5)  
  (0.996621621621622 0.00337837837837838)  
  (0.999151103565365 0.000848896434634975)  
  (0.998868778280543 0.00113122171945701)  
  (0.996621621621622 0.00337837837837838)  
  (0.5 0.5)  
  (0.999951413856768 4.85861432319502e-05)) 
 ((0.5 0.5)  
  (0.996621621621622 0.00337837837837838)  
  (0.5 0.5)  
  (0.996621621621622 0.00337837837837838)  
  (0.5 0.5)  
  (0.5 0.5)  
  (0.999869212660215 0.000130787339785509)) 
 ((0.5 0.5)  
  (0.5 0.5)  
  (0.5 0.5)  
  (0.5 0.5)  
  (0.5 0.5)  
  (0.5 0.5)  
  (0.999514563106796 0.000485436893203883)) 
 ((0.5 0.5)  
  (0.996621621621622 0.00337837837837838)  
  (0.998868778280543 0.00113122171945701)  
  (0.998305084745763 0.00169491525423729)  
  (0.996621621621622 0.00337837837837838)  
  (0.996621621621622 0.00337837837837838)  
  (0.999960906958561 3.90930414386239e-05)) 
 ((0.996621621621622 0.00337837837837838)  
  (0.999433748584372 0.000566251415628539)  
  (0.998868778280543 0.00113122171945701)  
  (0.999433748584372 0.000566251415628539)  
  (0.998305084745763 0.00169491525423729)  
  (0.5 0.5)  
  (0.999930594114381 6.94058856191005e-05)) 
 ((0.5 0.5)  
  (0.5 0.5)  
  (0.5 0.5)  
  (0.998305084745763 0.00169491525423729)  
  (0.5 0.5)  
  (0.5 0.5)  
  (0.999787505312367 0.000212494687632809)) 
 ((0.5 0.5)  
  (0.5 0.5)  
  (0.5 0.5)  
  (0.996621621621622 0.00337837837837838)  
  (0.996621621621622 0.00337837837837838)  
  (0.5 0.5)  
  (0.999886647018817 0.000113352981183405)) 
 ((0.5 0.5)  
  (0.5 0.5)  
  (0.996621621621622 0.00337837837837838)  
  (0.998305084745763 0.00169491525423729)  
  (0.996621621621622 0.00337837837837838)  
  (0.5 0.5)  
  (0.99971671388102 0.00028328611898017)) 
 ((0.5 0.5)  
  (0.5 0.5)  
  (0.5 0.5)  
  (0.5 0.5)  
  (0.5 0.5)  
  (0.5 0.5)  
  (0.999514563106796 0.000485436893203883)) 
 ((0.5 0.5)  
  (0.5 0.5)  
  (0.998305084745763 0.00169491525423729)  
  (0.5 0.5)  
  (0.5 0.5)  
  (0.5 0.5)  
  (0.999660095173352 0.000339904826648538)) 
 ((0.5 0.5)  
  (0.996621621621622 0.00337837837837838)  
  (0.996621621621622 0.00337837837837838)  
  (0.998868778280543 0.00113122171945701)  
  (0.996621621621622 0.00337837837837838)  
  (0.5 0.5)  
  (0.999924425634825 7.55743651753325e-05)) 
 ((0.5 0.5)  
  (0.5 0.5)  
  (0.996621621621622 0.00337837837837838)  
  (0.996621621621622 0.00337837837837838)  
  (0.5 0.5)  
  (0.5 0.5)  
  (0.999858316803627 0.00014168319637291)) 
 ((0.5 0.5)  
  (0.5 0.5)  
  (0.5 0.5)  
  (0.996621621621622 0.00337837837837838)  
  (0.5 0.5)  
  (0.5 0.5)  
  (0.999433748584372 0.000566251415628539)) 
 ((0.5 0.5)  
  (0.998305084745763 0.00169491525423729)  
  (0.998305084745763 0.00169491525423729)  
  (0.998305084745763 0.00169491525423729)  
  (0.996621621621622 0.00337837837837838)  
  (0.996621621621622 0.00337837837837838)  
  (0.999964936886396 3.50631136044881e-05)) 
 ((0.5 0.5)  
  (0.998868778280543 0.00113122171945701)  
  (0.5 0.5)  
  (0.999514563106796 0.000485436893203883)  
  (0.999151103565365 0.000848896434634975)  
  (0.5 0.5)  
  (0.999934597776324 6.5402223675605e-05)) 
 ((0.5 0.5)  
  (0.5 0.5)  
  (0.996621621621622 0.00337837837837838)  
  (0.5 0.5)  
  (0.5 0.5)  
  (0.5 0.5)  
  (0.999738493723849 0.000261506276150628)) 
 ((0.5 0.5)  
  (0.5 0.5)  
  (0.5 0.5)  
  (0.5 0.5)  
  (0.5 0.5)  
  (0.5 0.5)  
  (0.99971671388102 0.00028328611898017)) 
 ((0.5 0.5)  
  (0.5 0.5)  
  (0.996621621621622 0.00337837837837838)  
  (0.998305084745763 0.00169491525423729)  
  (0.5 0.5)  
  (0.5 0.5)  
  (0.99987855234394 0.000121447656060238)) 
 ((0.998305084745763 0.00169491525423729)  
  (0.666289592760181 0.333710407239819)  
  (0.999433748584372 0.000566251415628539)  
  (0.999514563106796 0.000485436893203883)  
  (0.998305084745763 0.00169491525423729)  
  (0.5 0.5)  
  (0.99998067483477 1.93251652301627e-05)) 
 ((0.5 0.5)  
  (0.5 0.5)  
  (0.999320652173913 0.000679347826086957)  
  (0.5 0.5)  
  (0.996621621621622 0.00337837837837838)  
  (0.996621621621622 0.00337837837837838)  
  (0.999829989799388 0.000170010200612037)) 
 ((0.996621621621622 0.00337837837837838)  
  (0.996621621621622 0.00337837837837838)  
  (0.996621621621622 0.00337837837837838)  
  (0.998868778280543 0.00113122171945701)  
  (0.5 0.5)  
  (0.5 0.5)  
  (0.999912800837112 8.71991628880363e-05)))
;
}
potential ( LrLr_97 | occupation Str.ctr_79 )
{
   data = 
(((0.125 0.125 0.125 0.125 0.125 0.125 0.125 0.125)  
  (0.000844594594594595 0.000844594594594595 0.000844594594594595 0.000844594594594595 0.000844594594594595 0.994087837837838 0.000844594594594595 0.000844594594594595)  
  (0.000212224108658744 0.249787775891341 0.249787775891341 0.000212224108658744 0.249787775891341 0.000212224108658744 0.000212224108658744 0.249787775891341)  
  (0.000282805429864253 0.000282805429864253 0.000282805429864253 0.000282805429864253 0.332861990950226 0.000282805429864253 0.000282805429864253 0.665441176470588)  
  (0.000844594594594595 0.000844594594594595 0.000844594594594595 0.000844594594594595 0.000844594594594595 0.994087837837838 0.000844594594594595 0.000844594594594595)  
  (0.125 0.125 0.125 0.125 0.125 0.125 0.125 0.125)  
  (0.0285807987561947 1.21465358079876e-05 0.0571494509765815 0.0857181031969682 0.228561364298902 0.0285807987561947 0.0142964726460014 0.55710086483335)) 
 ((0.125 0.125 0.125 0.125 0.125 0.125 0.125 0.125)  
  (0.000844594594594595 0.994087837837838 0.000844594594594595 0.000844594594594595 0.000844594594594595 0.000844594594594595 0.000844594594594595 0.000844594594594595)  
  (0.125 0.125 0.125 0.125 0.125 0.125 0.125 0.125)  
  (0.000844594594594595 0.000844594594594595 0.000844594594594595 0.000844594594594595 0.994087837837838 0.000844594594594595 0.000844594594594595 0.000844594594594595)  
  (0.125 0.125 0.125 0.125 0.125 0.125 0.125 0.125)  
  (0.125 0.125 0.125 0.125 0.125 0.125 0.125 0.125)  
  (3.26968349463772e-05 0.0769356526288255 0.0769356526288255 0.115387130525765 0.115387130525765 0.115387130525765 0.038484174731886 0.461450431598221)) 
 ((0.125 0.125 0.125 0.125 0.125 0.125 0.125 0.125)  
  (0.125 0.125 0.125 0.125 0.125 0.125 0.125 0.125)  
  (0.125 0.125 0.125 0.125 0.125 0.125 0.125 0.125)  
  (0.125 0.125 0.125 0.125 0.125 0.125 0.125 0.125)  
  (0.125 0.125 0.125 0.125 0.125 0.125 0.125 0.125)  
  (0.125 0.125 0.125 0.125 0.125 0.125 0.125 0.125)  
  (0.000121359223300971 0.000121359223300971 0.142839805825243 0.142839805825243 0.000121359223300971 0.000121359223300971 0.000121359223300971 0.713713592233009)) 
 ((0.125 0.125 0.125 0.125 0.125 0.125 0.125 0.125)  
  (0.000844594594594595 0.994087837837838 0.000844594594594595 0.000844594594594595 0.000844594594594595 0.000844594594594595 0.000844594594594595 0.000844594594594595)  
  (0.000282805429864253 0.000282805429864253 0.000282805429864253 0.000282805429864253 0.000282805429864253 0.332861990950226 0.000282805429864253 0.665441176470588)  
  (0.000423728813559322 0.000423728813559322 0.000423728813559322 0.000423728813559322 0.000423728813559322 0.000423728813559322 0.000423728813559322 0.997033898305085)  
  (0.000844594594594595 0.000844594594594595 0.000844594594594595 0.994087837837838 0.000844594594594595 0.000844594594594595 0.000844594594594595 0.000844594594594595)  
  (0.000844594594594595 0.000844594594594595 0.000844594594594595 0.000844594594594595 0.000844594594594595 0.000844594594594595 0.000844594594594595 0.994087837837838)  
  (9.77326035965597e-06 0.0459831899921814 0.0459831899921814 0.160916731821736 0.091956606724003 0.0459831899921814 9.77326035965597e-06 0.609157544956998)) 
 ((0.000844594594594595 0.000844594594594595 0.000844594594594595 0.000844594594594595 0.000844594594594595 0.000844594594594595 0.000844594594594595 0.994087837837838)  
  (0.000141562853907135 0.000141562853907135 0.000141562853907135 0.000141562853907135 0.000141562853907135 0.000141562853907135 0.000141562853907135 0.99900906002265)  
  (0.000282805429864253 0.000282805429864253 0.000282805429864253 0.332861990950226 0.332861990950226 0.000282805429864253 0.000282805429864253 0.332861990950226)  
  (0.000141562853907135 0.000141562853907135 0.000141562853907135 0.000141562853907135 0.333097395243488 0.166619479048698 0.000141562853907135 0.499575311438279)  
  (0.000423728813559322 0.000423728813559322 0.000423728813559322 0.000423728813559322 0.000423728813559322 0.000423728813559322 0.000423728813559322 0.997033898305085)  
  (0.125 0.125 0.125 0.125 0.125 0.125 0.125 0.125)  
  (1.73514714047751e-05 1.73514714047751e-05 0.0612333425874514 0.0816386729594669 0.20407065519156 0.102044003331483 1.73514714047751e-05 0.550961271515825)) 
 ((0.125 0.125 0.125 0.125 0.125 0.125 0.125 0.125)  
  (0.125 0.125 0.125 0.125 0.125 0.125 0.125 0.125)  
  (0.125 0.125 0.125 0.125 0.125 0.125 0.125 0.125)  
  (0.000423728813559322 0.000423728813559322 0.000423728813559322 0.000423728813559322 0.498728813559322 0.498728813559322 0.000423728813559322 0.000423728813559322)  
  (0.125 0.125 0.125 0.125 0.125 0.125 0.125 0.125)  
  (0.125 0.125 0.125 0.125 0.125 0.125 0.125 0.125)  
  (5.31236719082022e-05 5.31236719082022e-05 5.31236719082022e-05 0.249946876328092 0.312420314492138 5.31236719082022e-05 5.31236719082022e-05 0.43736719082023)) 
 ((0.125 0.125 0.125 0.125 0.125 0.125 0.125 0.125)  
  (0.125 0.125 0.125 0.125 0.125 0.125 0.125 0.125)  
  (0.125 0.125 0.125 0.125 0.125 0.125 0.125 0.125)  
  (0.000844594594594595 0.000844594594594595 0.000844594594594595 0.994087837837838 0.000844594594594595 0.000844594594594595 0.000844594594594595 0.000844594594594595)  
  (0.000844594594594595 0.000844594594594595 0.000844594594594595 0.994087837837838 0.000844594594594595 0.000844594594594595 0.000844594594594595 0.000844594594594595)  
  (0.125 0.125 0.125 0.125 0.125 0.125 0.125 0.125)  
  (2.83382452958513e-05 0.100005667649059 0.033354114713217 0.299960326456586 0.100005667649059 0.0666798911811381 0.033354114713217 0.366611879392428)) 
 ((0.125 0.125 0.125 0.125 0.125 0.125 0.125 0.125)  
  (0.125 0.125 0.125 0.125 0.125 0.125 0.125 0.125)  
  (0.000844594594594595 0.000844594594594595 0.000844594594594595 0.000844594594594595 0.000844594594594595 0.000844594594594595 0.000844594594594595 0.994087837837838)  
  (0.000423728813559322 0.000423728813559322 0.000423728813559322 0.000423728813559322 0.498728813559322 0.000423728813559322 0.000423728813559322 0.498728813559322)  
  (0.000844594594594595 0.000844594594594595 0.000844594594594595 0.000844594594594595 0.000844594594594595 0.000844594594594595 0.000844594594594595 0.994087837837838)  
  (0.125 0.125 0.125 0.125 0.125 0.125 0.125 0.125)  
  (7.08215297450425e-05 7.08215297450425e-05 0.083356940509915 0.249929178470255 0.083356940509915 0.083356940509915 7.08215297450425e-05 0.499787535410765)) 
 ((0.125 0.125 0.125 0.125 0.125 0.125 0.125 0.125)  
  (0.125 0.125 0.125 0.125 0.125 0.125 0.125 0.125)  
  (0.125 0.125 0.125 0.125 0.125 0.125 0.125 0.125)  
  (0.125 0.125 0.125 0.125 0.125 0.125 0.125 0.125)  
  (0.125 0.125 0.125 0.125 0.125 0.125 0.125 0.125)  
  (0.125 0.125 0.125 0.125 0.125 0.125 0.125 0.125)  
  (0.000121359223300971 0.142839805825243 0.142839805825243 0.142839805825243 0.142839805825243 0.000121359223300971 0.000121359223300971 0.428276699029126)) 
 ((0.125 0.125 0.125 0.125 0.125 0.125 0.125 0.125)  
  (0.125 0.125 0.125 0.125 0.125 0.125 0.125 0.125)  
  (0.000423728813559322 0.000423728813559322 0.000423728813559322 0.498728813559322 0.000423728813559322 0.000423728813559322 0.000423728813559322 0.498728813559322)  
  (0.125 0.125 0.125 0.125 0.125 0.125 0.125 0.125)  
  (0.125 0.125 0.125 0.125 0.125 0.125 0.125 0.125)  
  (0.125 0.125 0.125 0.125 0.125 0.125 0.125 0.125)  
  (8.49762066621346e-05 0.100016995241332 8.49762066621346e-05 0.199949014276003 0.199949014276003 0.199949014276003 8.49762066621346e-05 0.299881033310673)) 
 ((0.125 0.125 0.125 0.125 0.125 0.125 0.125 0.125)  
  (0.000844594594594595 0.000844594594594595 0.994087837837838 0.000844594594594595 0.000844594594594595 0.000844594594594595 0.000844594594594595 0.000844594594594595)  
  (0.000844594594594595 0.000844594594594595 0.000844594594594595 0.000844594594594595 0.000844594594594595 0.000844594594594595 0.000844594594594595 0.994087837837838)  
  (0.000282805429864253 0.000282805429864253 0.000282805429864253 0.332861990950226 0.332861990950226 0.000282805429864253 0.000282805429864253 0.332861990950226)  
  (0.000844594594594595 0.000844594594594595 0.000844594594594595 0.000844594594594595 0.994087837837838 0.000844594594594595 0.000844594594594595 0.000844594594594595)  
  (0.125 0.125 0.125 0.125 0.125 0.125 0.125 0.125)  
  (1.88935912938331e-05 0.0222377569528416 1.88935912938331e-05 0.111113210399033 0.111113210399033 0.0222377569528416 1.88935912938331e-05 0.73324138452237)) 
 ((0.125 0.125 0.125 0.125 0.125 0.125 0.125 0.125)  
  (0.125 0.125 0.125 0.125 0.125 0.125 0.125 0.125)  
  (0.000844594594594595 0.000844594594594595 0.000844594594594595 0.000844594594594595 0.000844594594594595 0.000844594594594595 0.000844594594594595 0.994087837837838)  
  (0.000844594594594595 0.000844594594594595 0.000844594594594595 0.000844594594594595 0.994087837837838 0.000844594594594595 0.000844594594594595 0.000844594594594595)  
  (0.125 0.125 0.125 0.125 0.125 0.125 0.125 0.125)  
  (0.125 0.125 0.125 0.125 0.125 0.125 0.125 0.125)  
  (3.54207990932275e-05 3.54207990932275e-05 0.125 0.125 0.208309719467271 0.0833451402663644 0.0416902805327288 0.416584018135449)) 
 ((0.125 0.125 0.125 0.125 0.125 0.125 0.125 0.125)  
  (0.125 0.125 0.125 0.125 0.125 0.125 0.125 0.125)  
  (0.000423728813559322 0.000423728813559322 0.000423728813559322 0.997033898305085 0.000423728813559322 0.000423728813559322 0.000423728813559322 0.000423728813559322)  
  (0.000844594594594595 0.000844594594594595 0.000844594594594595 0.000844594594594595 0.000844594594594595 0.994087837837838 0.000844594594594595 0.000844594594594595)  
  (0.125 0.125 0.125 0.125 0.125 0.125 0.125 0.125)  
  (0.125 0.125 0.125 0.125 0.125 0.125 0.125 0.125)  
  (0.000141562853907135 0.000141562853907135 0.000141562853907135 0.166619479048698 0.000141562853907135 0.333097395243488 0.000141562853907135 0.499575311438279)) 
 ((0.125 0.125 0.125 0.125 0.125 0.125 0.125 0.125)  
  (0.000423728813559322 0.000423728813559322 0.000423728813559322 0.000423728813559322 0.000423728813559322 0.000423728813559322 0.000423728813559322 0.997033898305085)  
  (0.000423728813559322 0.000423728813559322 0.498728813559322 0.000423728813559322 0.000423728813559322 0.000423728813559322 0.000423728813559322 0.498728813559322)  
  (0.000423728813559322 0.000423728813559322 0.000423728813559322 0.000423728813559322 0.000423728813559322 0.498728813559322 0.000423728813559322 0.498728813559322)  
  (0.000844594594594595 0.000844594594594595 0.000844594594594595 0.994087837837838 0.000844594594594595 0.000844594594594595 0.000844594594594595 0.000844594594594595)  
  (0.000844594594594595 0.000844594594594595 0.000844594594594595 0.000844594594594595 0.000844594594594595 0.994087837837838 0.000844594594594595 0.000844594594594595)  
  (8.76577840112202e-06 0.0206258765778401 0.0206258765778401 0.22679698457223 0.175254207573633 0.0824772089761571 8.76577840112202e-06 0.474202314165498)) 
 ((0.125 0.125 0.125 0.125 0.125 0.125 0.125 0.125)  
  (0.000282805429864253 0.000282805429864253 0.000282805429864253 0.665441176470588 0.332861990950226 0.000282805429864253 0.000282805429864253 0.000282805429864253)  
  (0.125 0.125 0.125 0.125 0.125 0.125 0.125 0.125)  
  (0.000121359223300971 0.000121359223300971 0.000121359223300971 0.142839805825243 0.142839805825243 0.142839805825243 0.000121359223300971 0.570995145631067)  
  (0.000212224108658744 0.249787775891341 0.000212224108658744 0.249787775891341 0.499363327674024 0.000212224108658744 0.000212224108658744 0.000212224108658744)  
  (0.125 0.125 0.125 0.125 0.125 0.125 0.125 0.125)  
  (1.63505559189012e-05 1.63505559189012e-05 0.0769293655984304 0.134614126880314 0.230755395683453 0.0769293655984304 1.63505559189012e-05 0.480722694571615)) 
 ((0.125 0.125 0.125 0.125 0.125 0.125 0.125 0.125)  
  (0.125 0.125 0.125 0.125 0.125 0.125 0.125 0.125)  
  (0.000844594594594595 0.000844594594594595 0.000844594594594595 0.994087837837838 0.000844594594594595 0.000844594594594595 0.000844594594594595 0.000844594594594595)  
  (0.125 0.125 0.125 0.125 0.125 0.125 0.125 0.125)  
  (0.125 0.125 0.125 0.125 0.125 0.125 0.125 0.125)  
  (0.125 0.125 0.125 0.125 0.125 0.125 0.125 0.125)  
  (6.53765690376569e-05 0.0769482217573222 0.0769482217573222 0.0769482217573222 0.307596757322176 6.53765690376569e-05 0.0769482217573222 0.38447960251046)) 
 ((0.125 0.125 0.125 0.125 0.125 0.125 0.125 0.125)  
  (0.125 0.125 0.125 0.125 0.125 0.125 0.125 0.125)  
  (0.125 0.125 0.125 0.125 0.125 0.125 0.125 0.125)  
  (0.125 0.125 0.125 0.125 0.125 0.125 0.125 0.125)  
  (0.125 0.125 0.125 0.125 0.125 0.125 0.125 0.125)  
  (0.125 0.125 0.125 0.125 0.125 0.125 0.125 0.125)  
  (7.08215297450425e-05 7.08215297450425e-05 0.083356940509915 0.083356940509915 0.083356940509915 0.416501416430595 7.08215297450425e-05 0.333215297450425)) 
 ((0.125 0.125 0.125 0.125 0.125 0.125 0.125 0.125)  
  (0.125 0.125 0.125 0.125 0.125 0.125 0.125 0.125)  
  (0.000844594594594595 0.000844594594594595 0.000844594594594595 0.000844594594594595 0.994087837837838 0.000844594594594595 0.000844594594594595 0.000844594594594595)  
  (0.000423728813559322 0.000423728813559322 0.000423728813559322 0.000423728813559322 0.000423728813559322 0.000423728813559322 0.000423728813559322 0.997033898305085)  
  (0.125 0.125 0.125 0.125 0.125 0.125 0.125 0.125)  
  (0.125 0.125 0.125 0.125 0.125 0.125 0.125 0.125)  
  (3.03619140150595e-05 3.03619140150595e-05 0.142852805440855 0.071441583677435 0.035735972795725 0.107147194559145 3.03619140150595e-05 0.642731357784795)) 
 ((0.000423728813559322 0.000423728813559322 0.000423728813559322 0.000423728813559322 0.000423728813559322 0.000423728813559322 0.000423728813559322 0.997033898305085)  
  (0.000282805429864253 0.000282805429864253 0.000282805429864253 0.000282805429864253 0.332861990950226 0.000282805429864253 0.000282805429864253 0.665441176470588)  
  (0.000141562853907135 0.000141562853907135 0.000141562853907135 0.333097395243488 0.166619479048698 0.333097395243488 0.000141562853907135 0.166619479048698)  
  (0.000121359223300971 0.000121359223300971 0.000121359223300971 0.142839805825243 0.285558252427184 0.142839805825243 0.000121359223300971 0.428276699029126)  
  (0.000423728813559322 0.000423728813559322 0.000423728813559322 0.000423728813559322 0.498728813559322 0.498728813559322 0.000423728813559322 0.000423728813559322)  
  (0.125 0.125 0.125 0.125 0.125 0.125 0.125 0.125)  
  (4.83129130754068e-06 0.0284128241796467 0.0454576199126503 0.159089591466007 0.238631971553357 0.107955204266996 0.0170496270243111 0.403398330305724)) 
 ((0.125 0.125 0.125 0.125 0.125 0.125 0.125 0.125)  
  (0.125 0.125 0.125 0.125 0.125 0.125 0.125 0.125)  
  (0.000169836956521739 0.199898097826087 0.000169836956521739 0.199898097826087 0.199898097826087 0.000169836956521739 0.000169836956521739 0.399626358695652)  
  (0.125 0.125 0.125 0.125 0.125 0.125 0.125 0.125)  
  (0.000844594594594595 0.000844594594594595 0.000844594594594595 0.000844594594594595 0.994087837837838 0.000844594594594595 0.000844594594594595 0.000844594594594595)  
  (0.000844594594594595 0.000844594594594595 0.000844594594594595 0.000844594594594595 0.000844594594594595 0.994087837837838 0.000844594594594595 0.000844594594594595)  
  (4.25025501530092e-05 4.25025501530092e-05 4.25025501530092e-05 0.100008500510031 0.299940496429786 0.149991499489969 4.25025501530092e-05 0.449889493369602)) 
 ((0.000844594594594595 0.994087837837838 0.000844594594594595 0.000844594594594595 0.000844594594594595 0.000844594594594595 0.000844594594594595 0.000844594594594595)  
  (0.000844594594594595 0.000844594594594595 0.000844594594594595 0.994087837837838 0.000844594594594595 0.000844594594594595 0.000844594594594595 0.000844594594594595)  
  (0.000844594594594595 0.000844594594594595 0.000844594594594595 0.000844594594594595 0.000844594594594595 0.000844594594594595 0.000844594594594595 0.994087837837838)  
  (0.000282805429864253 0.000282805429864253 0.332861990950226 0.332861990950226 0.000282805429864253 0.000282805429864253 0.000282805429864253 0.332861990950226)  
  (0.125 0.125 0.125 0.125 0.125 0.125 0.125 0.125)  
  (0.125 0.125 0.125 0.125 0.125 0.125 0.125 0.125)  
  (2.17997907220091e-05 0.0256583536798047 0.153841123125218 0.153841123125218 0.153841123125218 0.0512949075688873 2.17997907220091e-05 0.46147976979421)))
;
}
potential ( Twstr_96 | occupation Str.ctr_79 )
{
   data = 
(((0.142857142857143 0.142857142857143 0.142857142857143 0.142857142857143 0.142857142857143 0.142857142857143 0.142857142857143)  
  (0.000965250965250965 0.000965250965250965 0.000965250965250965 0.994208494208494 0.000965250965250965 0.000965250965250965 0.000965250965250965)  
  (0.000242541838467136 0.24981809362115 0.000242541838467136 0.499393645403832 0.000242541838467136 0.000242541838467136 0.24981809362115)  
  (0.000323206205559147 0.000323206205559147 0.000323206205559147 0.665481577246283 0.000323206205559147 0.000323206205559147 0.332902391725921)  
  (0.000965250965250965 0.000965250965250965 0.000965250965250965 0.000965250965250965 0.000965250965250965 0.000965250965250965 0.994208494208494)  
  (0.142857142857143 0.142857142857143 0.142857142857143 0.142857142857143 0.142857142857143 0.142857142857143 0.142857142857143)  
  (1.38817552091286e-05 0.0428668600857893 0.0857198384163694 0.142857142857143 0.0142982078654025 1.38817552091286e-05 0.714230187264878)) 
 ((0.142857142857143 0.142857142857143 0.142857142857143 0.142857142857143 0.142857142857143 0.142857142857143 0.142857142857143)  
  (0.000965250965250965 0.000965250965250965 0.000965250965250965 0.000965250965250965 0.000965250965250965 0.000965250965250965 0.994208494208494)  
  (0.142857142857143 0.142857142857143 0.142857142857143 0.142857142857143 0.142857142857143 0.142857142857143 0.142857142857143)  
  (0.000965250965250965 0.000965250965250965 0.000965250965250965 0.000965250965250965 0.000965250965250965 0.000965250965250965 0.994208494208494)  
  (0.142857142857143 0.142857142857143 0.142857142857143 0.142857142857143 0.142857142857143 0.142857142857143 0.142857142857143)  
  (0.142857142857143 0.142857142857143 0.142857142857143 0.142857142857143 0.142857142857143 0.142857142857143 0.142857142857143)  
  (0.0769403236052464 0.0384888457083069 0.0769403236052464 0.0384888457083069 3.73678113672882e-05 3.73678113672882e-05 0.769066925750159)) 
 ((0.142857142857143 0.142857142857143 0.142857142857143 0.142857142857143 0.142857142857143 0.142857142857143 0.142857142857143)  
  (0.142857142857143 0.142857142857143 0.142857142857143 0.142857142857143 0.142857142857143 0.142857142857143 0.142857142857143)  
  (0.142857142857143 0.142857142857143 0.142857142857143 0.142857142857143 0.142857142857143 0.142857142857143 0.142857142857143)  
  (0.142857142857143 0.142857142857143 0.142857142857143 0.142857142857143 0.142857142857143 0.142857142857143 0.142857142857143)  
  (0.142857142857143 0.142857142857143 0.142857142857143 0.142857142857143 0.142857142857143 0.142857142857143 0.142857142857143)  
  (0.142857142857143 0.142857142857143 0.142857142857143 0.142857142857143 0.142857142857143 0.142857142857143 0.142857142857143)  
  (0.00013869625520111 0.142857142857143 0.142857142857143 0.142857142857143 0.00013869625520111 0.00013869625520111 0.571012482662968)) 
 ((0.142857142857143 0.142857142857143 0.142857142857143 0.142857142857143 0.142857142857143 0.142857142857143 0.142857142857143)  
  (0.000965250965250965 0.000965250965250965 0.000965250965250965 0.000965250965250965 0.994208494208494 0.000965250965250965 0.000965250965250965)  
  (0.000323206205559147 0.000323206205559147 0.000323206205559147 0.665481577246283 0.000323206205559147 0.000323206205559147 0.332902391725921)  
  (0.000484261501210654 0.000484261501210654 0.498789346246973 0.000484261501210654 0.000484261501210654 0.000484261501210654 0.498789346246973)  
  (0.000965250965250965 0.000965250965250965 0.000965250965250965 0.000965250965250965 0.994208494208494 0.000965250965250965 0.000965250965250965)  
  (0.000965250965250965 0.000965250965250965 0.000965250965250965 0.000965250965250965 0.994208494208494 0.000965250965250965 0.000965250965250965)  
  (1.11694404110354e-05 0.0344912319892773 0.0344912319892773 0.0919580029040546 0.0344912319892773 1.11694404110354e-05 0.804545962247291)) 
 ((0.000965250965250965 0.000965250965250965 0.000965250965250965 0.000965250965250965 0.000965250965250965 0.000965250965250965 0.994208494208494)  
  (0.000161786118751011 0.000161786118751011 0.499595534703123 0.000161786118751011 0.166639702313541 0.000161786118751011 0.333117618508332)  
  (0.000323206205559147 0.000323206205559147 0.000323206205559147 0.000323206205559147 0.000323206205559147 0.000323206205559147 0.998060762766645)  
  (0.000161786118751011 0.000161786118751011 0.166639702313541 0.166639702313541 0.333117618508332 0.000161786118751011 0.333117618508332)  
  (0.000484261501210654 0.498789346246973 0.000484261501210654 0.000484261501210654 0.000484261501210654 0.000484261501210654 0.498789346246973)  
  (0.142857142857143 0.142857142857143 0.142857142857143 0.142857142857143 0.142857142857143 0.142857142857143 0.142857142857143)  
  (0.0204251606250496 0.0408304909970651 0.102046482113112 0.102046482113112 0.0408304909970651 0.0204251606250496 0.673395732529547)) 
 ((0.142857142857143 0.142857142857143 0.142857142857143 0.142857142857143 0.142857142857143 0.142857142857143 0.142857142857143)  
  (0.142857142857143 0.142857142857143 0.142857142857143 0.142857142857143 0.142857142857143 0.142857142857143 0.142857142857143)  
  (0.142857142857143 0.142857142857143 0.142857142857143 0.142857142857143 0.142857142857143 0.142857142857143 0.142857142857143)  
  (0.000484261501210654 0.000484261501210654 0.498789346246973 0.498789346246973 0.000484261501210654 0.000484261501210654 0.000484261501210654)  
  (0.142857142857143 0.142857142857143 0.142857142857143 0.142857142857143 0.142857142857143 0.142857142857143 0.142857142857143)  
  (0.142857142857143 0.142857142857143 0.142857142857143 0.142857142857143 0.142857142857143 0.142857142857143 0.142857142857143)  
  (6.07127678950883e-05 6.07127678950883e-05 0.187481027260033 0.062534150931941 6.07127678950883e-05 6.07127678950883e-05 0.749741970736446)) 
 ((0.142857142857143 0.142857142857143 0.142857142857143 0.142857142857143 0.142857142857143 0.142857142857143 0.142857142857143)  
  (0.142857142857143 0.142857142857143 0.142857142857143 0.142857142857143 0.142857142857143 0.142857142857143 0.142857142857143)  
  (0.142857142857143 0.142857142857143 0.142857142857143 0.142857142857143 0.142857142857143 0.142857142857143 0.142857142857143)  
  (0.000965250965250965 0.000965250965250965 0.000965250965250965 0.994208494208494 0.000965250965250965 0.000965250965250965 0.000965250965250965)  
  (0.000965250965250965 0.000965250965250965 0.000965250965250965 0.000965250965250965 0.000965250965250965 0.994208494208494 0.000965250965250965)  
  (0.142857142857143 0.142857142857143 0.142857142857143 0.142857142857143 0.142857142857143 0.142857142857143 0.142857142857143)  
  (3.23865660524015e-05 0.0333581630339735 0.0666839395018946 0.133335492437737 0.133335492437737 3.23865660524015e-05 0.633222139456553)) 
 ((0.142857142857143 0.142857142857143 0.142857142857143 0.142857142857143 0.142857142857143 0.142857142857143 0.142857142857143)  
  (0.142857142857143 0.142857142857143 0.142857142857143 0.142857142857143 0.142857142857143 0.142857142857143 0.142857142857143)  
  (0.000965250965250965 0.000965250965250965 0.994208494208494 0.000965250965250965 0.000965250965250965 0.000965250965250965 0.000965250965250965)  
  (0.000484261501210654 0.000484261501210654 0.498789346246973 0.000484261501210654 0.000484261501210654 0.000484261501210654 0.498789346246973)  
  (0.000965250965250965 0.000965250965250965 0.000965250965250965 0.994208494208494 0.000965250965250965 0.000965250965250965 0.000965250965250965)  
  (0.142857142857143 0.142857142857143 0.142857142857143 0.142857142857143 0.142857142857143 0.142857142857143 0.142857142857143)  
  (8.09388911371914e-05 8.09388911371914e-05 8.09388911371914e-05 0.0833670578713072 0.166653176851477 8.09388911371914e-05 0.749656009712667)) 
 ((0.142857142857143 0.142857142857143 0.142857142857143 0.142857142857143 0.142857142857143 0.142857142857143 0.142857142857143)  
  (0.142857142857143 0.142857142857143 0.142857142857143 0.142857142857143 0.142857142857143 0.142857142857143 0.142857142857143)  
  (0.142857142857143 0.142857142857143 0.142857142857143 0.142857142857143 0.142857142857143 0.142857142857143 0.142857142857143)  
  (0.142857142857143 0.142857142857143 0.142857142857143 0.142857142857143 0.142857142857143 0.142857142857143 0.142857142857143)  
  (0.142857142857143 0.142857142857143 0.142857142857143 0.142857142857143 0.142857142857143 0.142857142857143 0.142857142857143)  
  (0.142857142857143 0.142857142857143 0.142857142857143 0.142857142857143 0.142857142857143 0.142857142857143 0.142857142857143)  
  (0.00013869625520111 0.00013869625520111 0.00013869625520111 0.142857142857143 0.142857142857143 0.142857142857143 0.571012482662968)) 
 ((0.142857142857143 0.142857142857143 0.142857142857143 0.142857142857143 0.142857142857143 0.142857142857143 0.142857142857143)  
  (0.142857142857143 0.142857142857143 0.142857142857143 0.142857142857143 0.142857142857143 0.142857142857143 0.142857142857143)  
  (0.000484261501210654 0.000484261501210654 0.000484261501210654 0.000484261501210654 0.000484261501210654 0.000484261501210654 0.997094430992736)  
  (0.142857142857143 0.142857142857143 0.142857142857143 0.142857142857143 0.142857142857143 0.142857142857143 0.142857142857143)  
  (0.142857142857143 0.142857142857143 0.142857142857143 0.142857142857143 0.142857142857143 0.142857142857143 0.142857142857143)  
  (0.142857142857143 0.142857142857143 0.142857142857143 0.142857142857143 0.142857142857143 0.142857142857143 0.142857142857143)  
  (9.71156647567252e-05 9.71156647567252e-05 9.71156647567252e-05 0.100029134699427 9.71156647567252e-05 9.71156647567252e-05 0.899485286976789)) 
 ((0.142857142857143 0.142857142857143 0.142857142857143 0.142857142857143 0.142857142857143 0.142857142857143 0.142857142857143)  
  (0.000965250965250965 0.000965250965250965 0.000965250965250965 0.000965250965250965 0.000965250965250965 0.000965250965250965 0.994208494208494)  
  (0.000965250965250965 0.000965250965250965 0.000965250965250965 0.000965250965250965 0.000965250965250965 0.000965250965250965 0.994208494208494)  
  (0.000323206205559147 0.000323206205559147 0.332902391725921 0.332902391725921 0.000323206205559147 0.000323206205559147 0.332902391725921)  
  (0.000965250965250965 0.000965250965250965 0.000965250965250965 0.994208494208494 0.000965250965250965 0.000965250965250965 0.000965250965250965)  
  (0.142857142857143 0.142857142857143 0.142857142857143 0.142857142857143 0.142857142857143 0.142857142857143 0.142857142857143)  
  (0.0222404560373121 0.0444593193988599 0.0666781827604077 0.0666781827604077 2.15926757643807e-05 2.15926757643807e-05 0.799900673691484)) 
 ((0.142857142857143 0.142857142857143 0.142857142857143 0.142857142857143 0.142857142857143 0.142857142857143 0.142857142857143)  
  (0.142857142857143 0.142857142857143 0.142857142857143 0.142857142857143 0.142857142857143 0.142857142857143 0.142857142857143)  
  (0.000965250965250965 0.000965250965250965 0.000965250965250965 0.994208494208494 0.000965250965250965 0.000965250965250965 0.000965250965250965)  
  (0.000965250965250965 0.000965250965250965 0.000965250965250965 0.000965250965250965 0.994208494208494 0.000965250965250965 0.000965250965250965)  
  (0.142857142857143 0.142857142857143 0.142857142857143 0.142857142857143 0.142857142857143 0.142857142857143 0.142857142857143)  
  (0.142857142857143 0.142857142857143 0.142857142857143 0.142857142857143 0.142857142857143 0.142857142857143 0.142857142857143)  
  (4.04809132494029e-05 4.04809132494029e-05 4.04809132494029e-05 4.04809132494029e-05 0.041695340646885 4.04809132494029e-05 0.958102254786868)) 
 ((0.142857142857143 0.142857142857143 0.142857142857143 0.142857142857143 0.142857142857143 0.142857142857143 0.142857142857143)  
  (0.142857142857143 0.142857142857143 0.142857142857143 0.142857142857143 0.142857142857143 0.142857142857143 0.142857142857143)  
  (0.000484261501210654 0.000484261501210654 0.000484261501210654 0.000484261501210654 0.498789346246973 0.000484261501210654 0.498789346246973)  
  (0.000965250965250965 0.000965250965250965 0.000965250965250965 0.994208494208494 0.000965250965250965 0.000965250965250965 0.000965250965250965)  
  (0.142857142857143 0.142857142857143 0.142857142857143 0.142857142857143 0.142857142857143 0.142857142857143 0.142857142857143)  
  (0.142857142857143 0.142857142857143 0.142857142857143 0.142857142857143 0.142857142857143 0.142857142857143 0.142857142857143)  
  (0.166639702313541 0.000161786118751011 0.166639702313541 0.000161786118751011 0.000161786118751011 0.000161786118751011 0.666073450897914)) 
 ((0.142857142857143 0.142857142857143 0.142857142857143 0.142857142857143 0.142857142857143 0.142857142857143 0.142857142857143)  
  (0.000484261501210654 0.000484261501210654 0.000484261501210654 0.498789346246973 0.000484261501210654 0.000484261501210654 0.498789346246973)  
  (0.000484261501210654 0.000484261501210654 0.498789346246973 0.000484261501210654 0.000484261501210654 0.000484261501210654 0.498789346246973)  
  (0.000484261501210654 0.000484261501210654 0.000484261501210654 0.000484261501210654 0.498789346246973 0.000484261501210654 0.498789346246973)  
  (0.000965250965250965 0.000965250965250965 0.000965250965250965 0.000965250965250965 0.000965250965250965 0.000965250965250965 0.994208494208494)  
  (0.000965250965250965 0.000965250965250965 0.000965250965250965 0.994208494208494 0.000965250965250965 0.000965250965250965 0.000965250965250965)  
  (1.00180324584252e-05 0.0309356842316169 0.113404127429373 0.0824784612302144 0.0618613504307754 1.00180324584252e-05 0.711300340613104)) 
 ((0.142857142857143 0.142857142857143 0.142857142857143 0.142857142857143 0.142857142857143 0.142857142857143 0.142857142857143)  
  (0.332902391725921 0.000323206205559147 0.000323206205559147 0.000323206205559147 0.000323206205559147 0.000323206205559147 0.665481577246283)  
  (0.142857142857143 0.142857142857143 0.142857142857143 0.142857142857143 0.142857142857143 0.142857142857143 0.142857142857143)  
  (0.00013869625520111 0.00013869625520111 0.00013869625520111 0.142857142857143 0.142857142857143 0.00013869625520111 0.71373092926491)  
  (0.000242541838467136 0.000242541838467136 0.000242541838467136 0.499393645403832 0.24981809362115 0.000242541838467136 0.24981809362115)  
  (0.142857142857143 0.142857142857143 0.142857142857143 0.142857142857143 0.142857142857143 0.142857142857143 0.142857142857143)  
  (1.86863496216014e-05 0.0192469401102495 0.0961599551527609 0.134616462674017 0.0384751938708773 0.0384751938708773 0.673007567971597)) 
 ((0.142857142857143 0.142857142857143 0.142857142857143 0.142857142857143 0.142857142857143 0.142857142857143 0.142857142857143)  
  (0.142857142857143 0.142857142857143 0.142857142857143 0.142857142857143 0.142857142857143 0.142857142857143 0.142857142857143)  
  (0.000965250965250965 0.000965250965250965 0.994208494208494 0.000965250965250965 0.000965250965250965 0.000965250965250965 0.000965250965250965)  
  (0.142857142857143 0.142857142857143 0.142857142857143 0.142857142857143 0.142857142857143 0.142857142857143 0.142857142857143)  
  (0.142857142857143 0.142857142857143 0.142857142857143 0.142857142857143 0.142857142857143 0.142857142857143 0.142857142857143)  
  (0.142857142857143 0.142857142857143 0.142857142857143 0.142857142857143 0.142857142857143 0.142857142857143 0.142857142857143)  
  (7.47160789001793e-05 7.47160789001793e-05 0.0769575612671847 0.0769575612671847 7.47160789001793e-05 7.47160789001793e-05 0.84578601315003)) 
 ((0.142857142857143 0.142857142857143 0.142857142857143 0.142857142857143 0.142857142857143 0.142857142857143 0.142857142857143)  
  (0.142857142857143 0.142857142857143 0.142857142857143 0.142857142857143 0.142857142857143 0.142857142857143 0.142857142857143)  
  (0.142857142857143 0.142857142857143 0.142857142857143 0.142857142857143 0.142857142857143 0.142857142857143 0.142857142857143)  
  (0.142857142857143 0.142857142857143 0.142857142857143 0.142857142857143 0.142857142857143 0.142857142857143 0.142857142857143)  
  (0.142857142857143 0.142857142857143 0.142857142857143 0.142857142857143 0.142857142857143 0.142857142857143 0.142857142857143)  
  (0.142857142857143 0.142857142857143 0.142857142857143 0.142857142857143 0.142857142857143 0.142857142857143 0.142857142857143)  
  (8.09388911371914e-05 8.09388911371914e-05 0.0833670578713072 0.0833670578713072 0.0833670578713072 8.09388911371914e-05 0.749656009712667)) 
 ((0.142857142857143 0.142857142857143 0.142857142857143 0.142857142857143 0.142857142857143 0.142857142857143 0.142857142857143)  
  (0.142857142857143 0.142857142857143 0.142857142857143 0.142857142857143 0.142857142857143 0.142857142857143 0.142857142857143)  
  (0.000965250965250965 0.000965250965250965 0.000965250965250965 0.000965250965250965 0.000965250965250965 0.000965250965250965 0.994208494208494)  
  (0.000484261501210654 0.000484261501210654 0.000484261501210654 0.000484261501210654 0.000484261501210654 0.000484261501210654 0.997094430992736)  
  (0.142857142857143 0.142857142857143 0.142857142857143 0.142857142857143 0.142857142857143 0.142857142857143 0.142857142857143)  
  (0.142857142857143 0.142857142857143 0.142857142857143 0.142857142857143 0.142857142857143 0.142857142857143 0.142857142857143)  
  (3.46993303029252e-05 0.0357403102120129 0.0357403102120129 0.0714459210937229 3.46993303029252e-05 3.46993303029252e-05 0.856969360491343)) 
 ((0.000484261501210654 0.498789346246973 0.000484261501210654 0.000484261501210654 0.000484261501210654 0.000484261501210654 0.498789346246973)  
  (0.000323206205559147 0.000323206205559147 0.332902391725921 0.000323206205559147 0.000323206205559147 0.000323206205559147 0.665481577246283)  
  (0.166639702313541 0.000161786118751011 0.166639702313541 0.000161786118751011 0.333117618508332 0.000161786118751011 0.333117618508332)  
  (0.00013869625520111 0.142857142857143 0.00013869625520111 0.142857142857143 0.285575589459085 0.00013869625520111 0.428294036061026)  
  (0.000484261501210654 0.000484261501210654 0.000484261501210654 0.997094430992736 0.000484261501210654 0.000484261501210654 0.000484261501210654)  
  (0.142857142857143 0.142857142857143 0.142857142857143 0.142857142857143 0.142857142857143 0.142857142857143 0.142857142857143)  
  (0.0113687186311157 0.0568215072524584 0.107955894451469 0.119319091606805 0.0511399086747906 5.52147578004649e-06 0.653389357907582)) 
 ((0.142857142857143 0.142857142857143 0.142857142857143 0.142857142857143 0.142857142857143 0.142857142857143 0.142857142857143)  
  (0.142857142857143 0.142857142857143 0.142857142857143 0.142857142857143 0.142857142857143 0.142857142857143 0.142857142857143)  
  (0.000194099378881988 0.000194099378881988 0.399650621118012 0.000194099378881988 0.000194099378881988 0.000194099378881988 0.599378881987578)  
  (0.142857142857143 0.142857142857143 0.142857142857143 0.142857142857143 0.142857142857143 0.142857142857143 0.142857142857143)  
  (0.000965250965250965 0.000965250965250965 0.994208494208494 0.000965250965250965 0.000965250965250965 0.000965250965250965 0.000965250965250965)  
  (0.000965250965250965 0.000965250965250965 0.000965250965250965 0.000965250965250965 0.000965250965250965 0.000965250965250965 0.994208494208494)  
  (4.85743430320105e-05 0.10001457230291 0.0500315733229708 0.10001457230291 4.85743430320105e-05 0.0500315733229708 0.699810560062175)) 
 ((0.000965250965250965 0.000965250965250965 0.000965250965250965 0.994208494208494 0.000965250965250965 0.000965250965250965 0.000965250965250965)  
  (0.000965250965250965 0.000965250965250965 0.000965250965250965 0.000965250965250965 0.000965250965250965 0.000965250965250965 0.994208494208494)  
  (0.000965250965250965 0.000965250965250965 0.994208494208494 0.000965250965250965 0.000965250965250965 0.000965250965250965 0.000965250965250965)  
  (0.000323206205559147 0.000323206205559147 0.332902391725921 0.332902391725921 0.000323206205559147 0.000323206205559147 0.332902391725921)  
  (0.142857142857143 0.142857142857143 0.142857142857143 0.142857142857143 0.142857142857143 0.142857142857143 0.142857142857143)  
  (0.142857142857143 0.142857142857143 0.142857142857143 0.142857142857143 0.142857142857143 0.142857142857143 0.142857142857143)  
  (2.49140465394389e-05 0.10257112960287 0.0256614679356221 0.0769345757137874 0.0769345757137874 2.49140465394389e-05 0.717848422940854)))
;
}
potential ( Int.mpr_94 | occupation Str.ctr_79 )
{
   data = 
(((0.111111111111111 0.111111111111111 0.111111111111111 0.111111111111111 0.111111111111111 0.111111111111111 0.111111111111111 0.111111111111111 0.111111111111111)  
  (0.000750750750750751 0.000750750750750751 0.000750750750750751 0.993993993993994 0.000750750750750751 0.000750750750750751 0.000750750750750751 0.000750750750750751 0.000750750750750751)  
  (0.000188643652141105 0.000188643652141105 0.000188643652141105 0.000188643652141105 0.249764195434824 0.249764195434824 0.000188643652141105 0.000188643652141105 0.499339747217506)  
  (0.000251382604323781 0.000251382604323781 0.000251382604323781 0.000251382604323781 0.665409753645048 0.000251382604323781 0.000251382604323781 0.000251382604323781 0.332830568124686)  
  (0.000750750750750751 0.000750750750750751 0.000750750750750751 0.000750750750750751 0.000750750750750751 0.000750750750750751 0.000750750750750751 0.000750750750750751 0.993993993993994)  
  (0.111111111111111 0.111111111111111 0.111111111111111 0.111111111111111 0.111111111111111 0.111111111111111 0.111111111111111 0.111111111111111 0.111111111111111)  
  (1.07969207182112e-05 1.07969207182112e-05 0.0571481013614917 0.028579449141105 0.028579449141105 0.0142951230309116 1.07969207182112e-05 1.07969207182112e-05 0.871354689642514)) 
 ((0.111111111111111 0.111111111111111 0.111111111111111 0.111111111111111 0.111111111111111 0.111111111111111 0.111111111111111 0.111111111111111 0.111111111111111)  
  (0.000750750750750751 0.000750750750750751 0.000750750750750751 0.000750750750750751 0.000750750750750751 0.000750750750750751 0.000750750750750751 0.000750750750750751 0.993993993993994)  
  (0.111111111111111 0.111111111111111 0.111111111111111 0.111111111111111 0.111111111111111 0.111111111111111 0.111111111111111 0.111111111111111 0.111111111111111)  
  (0.000750750750750751 0.000750750750750751 0.000750750750750751 0.000750750750750751 0.000750750750750751 0.000750750750750751 0.000750750750750751 0.000750750750750751 0.993993993993994)  
  (0.111111111111111 0.111111111111111 0.111111111111111 0.111111111111111 0.111111111111111 0.111111111111111 0.111111111111111 0.111111111111111 0.111111111111111)  
  (0.111111111111111 0.111111111111111 0.111111111111111 0.111111111111111 0.111111111111111 0.111111111111111 0.111111111111111 0.111111111111111 0.111111111111111)  
  (2.90638532856686e-05 2.90638532856686e-05 2.90638532856686e-05 2.90638532856686e-05 2.90638532856686e-05 2.90638532856686e-05 2.90638532856686e-05 2.90638532856686e-05 0.999767489173715)) 
 ((0.111111111111111 0.111111111111111 0.111111111111111 0.111111111111111 0.111111111111111 0.111111111111111 0.111111111111111 0.111111111111111 0.111111111111111)  
  (0.111111111111111 0.111111111111111 0.111111111111111 0.111111111111111 0.111111111111111 0.111111111111111 0.111111111111111 0.111111111111111 0.111111111111111)  
  (0.111111111111111 0.111111111111111 0.111111111111111 0.111111111111111 0.111111111111111 0.111111111111111 0.111111111111111 0.111111111111111 0.111111111111111)  
  (0.111111111111111 0.111111111111111 0.111111111111111 0.111111111111111 0.111111111111111 0.111111111111111 0.111111111111111 0.111111111111111 0.111111111111111)  
  (0.111111111111111 0.111111111111111 0.111111111111111 0.111111111111111 0.111111111111111 0.111111111111111 0.111111111111111 0.111111111111111 0.111111111111111)  
  (0.111111111111111 0.111111111111111 0.111111111111111 0.111111111111111 0.111111111111111 0.111111111111111 0.111111111111111 0.111111111111111 0.111111111111111)  
  (0.000107874865156419 0.000107874865156419 0.000107874865156419 0.000107874865156419 0.000107874865156419 0.000107874865156419 0.000107874865156419 0.000107874865156419 0.999137001078749)) 
 ((0.111111111111111 0.111111111111111 0.111111111111111 0.111111111111111 0.111111111111111 0.111111111111111 0.111111111111111 0.111111111111111 0.111111111111111)  
  (0.000750750750750751 0.000750750750750751 0.000750750750750751 0.000750750750750751 0.000750750750750751 0.000750750750750751 0.000750750750750751 0.000750750750750751 0.993993993993994)  
  (0.000251382604323781 0.000251382604323781 0.000251382604323781 0.665409753645048 0.000251382604323781 0.000251382604323781 0.000251382604323781 0.000251382604323781 0.332830568124686)  
  (0.000376647834274953 0.000376647834274953 0.000376647834274953 0.000376647834274953 0.498681732580038 0.000376647834274953 0.000376647834274953 0.000376647834274953 0.498681732580038)  
  (0.000750750750750751 0.000750750750750751 0.993993993993994 0.000750750750750751 0.000750750750750751 0.000750750750750751 0.000750750750750751 0.000750750750750751 0.000750750750750751)  
  (0.000750750750750751 0.000750750750750751 0.000750750750750751 0.000750750750750751 0.000750750750750751 0.000750750750750751 0.000750750750750751 0.000750750750750751 0.993993993993994)  
  (0.0115020415254974 0.0115020415254974 0.0115020415254974 0.0459821040743637 8.68734254191643e-06 0.0115020415254974 8.68734254191643e-06 8.68734254191643e-06 0.907983667796021)) 
 ((0.000750750750750751 0.000750750750750751 0.000750750750750751 0.000750750750750751 0.000750750750750751 0.000750750750750751 0.000750750750750751 0.000750750750750751 0.993993993993994)  
  (0.000125833647917453 0.000125833647917453 0.000125833647917453 0.333081666037498 0.000125833647917453 0.000125833647917453 0.000125833647917453 0.000125833647917453 0.66603749842708)  
  (0.000251382604323781 0.000251382604323781 0.000251382604323781 0.665409753645048 0.000251382604323781 0.000251382604323781 0.000251382604323781 0.000251382604323781 0.332830568124686)  
  (0.000125833647917453 0.000125833647917453 0.000125833647917453 0.166603749842708 0.166603749842708 0.000125833647917453 0.000125833647917453 0.000125833647917453 0.666037498427079)  
  (0.000376647834274953 0.000376647834274953 0.000376647834274953 0.498681732580038 0.498681732580038 0.000376647834274953 0.000376647834274953 0.000376647834274953 0.000376647834274953)  
  (0.111111111111111 0.111111111111111 0.111111111111111 0.111111111111111 0.111111111111111 0.111111111111111 0.111111111111111 0.111111111111111 0.111111111111111)  
  (1.54235301375779e-05 1.54235301375779e-05 0.0204207539021531 0.0408260842741687 0.0408260842741687 1.54235301375779e-05 1.54235301375779e-05 1.54235301375779e-05 0.897849959898822)) 
 ((0.111111111111111 0.111111111111111 0.111111111111111 0.111111111111111 0.111111111111111 0.111111111111111 0.111111111111111 0.111111111111111 0.111111111111111)  
  (0.111111111111111 0.111111111111111 0.111111111111111 0.111111111111111 0.111111111111111 0.111111111111111 0.111111111111111 0.111111111111111 0.111111111111111)  
  (0.111111111111111 0.111111111111111 0.111111111111111 0.111111111111111 0.111111111111111 0.111111111111111 0.111111111111111 0.111111111111111 0.111111111111111)  
  (0.000376647834274953 0.000376647834274953 0.000376647834274953 0.498681732580038 0.498681732580038 0.000376647834274953 0.000376647834274953 0.000376647834274953 0.000376647834274953)  
  (0.111111111111111 0.111111111111111 0.111111111111111 0.111111111111111 0.111111111111111 0.111111111111111 0.111111111111111 0.111111111111111 0.111111111111111)  
  (0.111111111111111 0.111111111111111 0.111111111111111 0.111111111111111 0.111111111111111 0.111111111111111 0.111111111111111 0.111111111111111 0.111111111111111)  
  (4.72210416961798e-05 4.72210416961798e-05 4.72210416961798e-05 0.0625206592057421 0.0625206592057421 4.72210416961798e-05 0.0625206592057421 4.72210416961798e-05 0.812201917174293)) 
 ((0.111111111111111 0.111111111111111 0.111111111111111 0.111111111111111 0.111111111111111 0.111111111111111 0.111111111111111 0.111111111111111 0.111111111111111)  
  (0.111111111111111 0.111111111111111 0.111111111111111 0.111111111111111 0.111111111111111 0.111111111111111 0.111111111111111 0.111111111111111 0.111111111111111)  
  (0.111111111111111 0.111111111111111 0.111111111111111 0.111111111111111 0.111111111111111 0.111111111111111 0.111111111111111 0.111111111111111 0.111111111111111)  
  (0.000750750750750751 0.000750750750750751 0.000750750750750751 0.000750750750750751 0.000750750750750751 0.000750750750750751 0.000750750750750751 0.000750750750750751 0.993993993993994)  
  (0.000750750750750751 0.000750750750750751 0.000750750750750751 0.000750750750750751 0.000750750750750751 0.000750750750750751 0.000750750750750751 0.000750750750750751 0.993993993993994)  
  (0.111111111111111 0.111111111111111 0.111111111111111 0.111111111111111 0.111111111111111 0.111111111111111 0.111111111111111 0.111111111111111 0.111111111111111)  
  (2.518955137409e-05 2.518955137409e-05 2.518955137409e-05 0.0333509660192952 2.518955137409e-05 2.518955137409e-05 2.518955137409e-05 2.518955137409e-05 0.966472707121086)) 
 ((0.111111111111111 0.111111111111111 0.111111111111111 0.111111111111111 0.111111111111111 0.111111111111111 0.111111111111111 0.111111111111111 0.111111111111111)  
  (0.111111111111111 0.111111111111111 0.111111111111111 0.111111111111111 0.111111111111111 0.111111111111111 0.111111111111111 0.111111111111111 0.111111111111111)  
  (0.000750750750750751 0.000750750750750751 0.000750750750750751 0.000750750750750751 0.000750750750750751 0.000750750750750751 0.000750750750750751 0.000750750750750751 0.993993993993994)  
  (0.000376647834274953 0.000376647834274953 0.000376647834274953 0.498681732580038 0.000376647834274953 0.000376647834274953 0.000376647834274953 0.498681732580038 0.000376647834274953)  
  (0.000750750750750751 0.000750750750750751 0.000750750750750751 0.000750750750750751 0.000750750750750751 0.000750750750750751 0.000750750750750751 0.000750750750750751 0.993993993993994)  
  (0.111111111111111 0.111111111111111 0.111111111111111 0.111111111111111 0.111111111111111 0.111111111111111 0.111111111111111 0.111111111111111 0.111111111111111)  
  (6.29524708844822e-05 6.29524708844822e-05 6.29524708844822e-05 6.29524708844822e-05 6.29524708844822e-05 6.29524708844822e-05 6.29524708844822e-05 6.29524708844822e-05 0.999496380232924)) 
 ((0.111111111111111 0.111111111111111 0.111111111111111 0.111111111111111 0.111111111111111 0.111111111111111 0.111111111111111 0.111111111111111 0.111111111111111)  
  (0.111111111111111 0.111111111111111 0.111111111111111 0.111111111111111 0.111111111111111 0.111111111111111 0.111111111111111 0.111111111111111 0.111111111111111)  
  (0.111111111111111 0.111111111111111 0.111111111111111 0.111111111111111 0.111111111111111 0.111111111111111 0.111111111111111 0.111111111111111 0.111111111111111)  
  (0.111111111111111 0.111111111111111 0.111111111111111 0.111111111111111 0.111111111111111 0.111111111111111 0.111111111111111 0.111111111111111 0.111111111111111)  
  (0.111111111111111 0.111111111111111 0.111111111111111 0.111111111111111 0.111111111111111 0.111111111111111 0.111111111111111 0.111111111111111 0.111111111111111)  
  (0.111111111111111 0.111111111111111 0.111111111111111 0.111111111111111 0.111111111111111 0.111111111111111 0.111111111111111 0.111111111111111 0.111111111111111)  
  (0.000107874865156419 0.000107874865156419 0.000107874865156419 0.000107874865156419 0.000107874865156419 0.000107874865156419 0.000107874865156419 0.000107874865156419 0.999137001078749)) 
 ((0.111111111111111 0.111111111111111 0.111111111111111 0.111111111111111 0.111111111111111 0.111111111111111 0.111111111111111 0.111111111111111 0.111111111111111)  
  (0.111111111111111 0.111111111111111 0.111111111111111 0.111111111111111 0.111111111111111 0.111111111111111 0.111111111111111 0.111111111111111 0.111111111111111)  
  (0.000376647834274953 0.000376647834274953 0.000376647834274953 0.000376647834274953 0.000376647834274953 0.498681732580038 0.000376647834274953 0.000376647834274953 0.498681732580038)  
  (0.111111111111111 0.111111111111111 0.111111111111111 0.111111111111111 0.111111111111111 0.111111111111111 0.111111111111111 0.111111111111111 0.111111111111111)  
  (0.111111111111111 0.111111111111111 0.111111111111111 0.111111111111111 0.111111111111111 0.111111111111111 0.111111111111111 0.111111111111111 0.111111111111111)  
  (0.111111111111111 0.111111111111111 0.111111111111111 0.111111111111111 0.111111111111111 0.111111111111111 0.111111111111111 0.111111111111111 0.111111111111111)  
  (7.55344059218974e-05 7.55344059218974e-05 7.55344059218974e-05 7.55344059218974e-05 7.55344059218974e-05 7.55344059218974e-05 7.55344059218974e-05 7.55344059218974e-05 0.999395724752625)) 
 ((0.111111111111111 0.111111111111111 0.111111111111111 0.111111111111111 0.111111111111111 0.111111111111111 0.111111111111111 0.111111111111111 0.111111111111111)  
  (0.000750750750750751 0.000750750750750751 0.000750750750750751 0.000750750750750751 0.000750750750750751 0.000750750750750751 0.000750750750750751 0.000750750750750751 0.993993993993994)  
  (0.000750750750750751 0.000750750750750751 0.000750750750750751 0.000750750750750751 0.000750750750750751 0.000750750750750751 0.000750750750750751 0.000750750750750751 0.993993993993994)  
  (0.000251382604323781 0.000251382604323781 0.000251382604323781 0.000251382604323781 0.332830568124686 0.000251382604323781 0.000251382604323781 0.000251382604323781 0.665409753645048)  
  (0.000750750750750751 0.000750750750750751 0.000750750750750751 0.000750750750750751 0.993993993993994 0.000750750750750751 0.000750750750750751 0.000750750750750751 0.000750750750750751)  
  (0.111111111111111 0.111111111111111 0.111111111111111 0.111111111111111 0.111111111111111 0.111111111111111 0.111111111111111 0.111111111111111 0.111111111111111)  
  (1.67943033722961e-05 0.0444545210264678 1.67943033722961e-05 0.0666733843880156 0.0222356576649201 1.67943033722961e-05 1.67943033722961e-05 1.67943033722961e-05 0.866552465403735)) 
 ((0.111111111111111 0.111111111111111 0.111111111111111 0.111111111111111 0.111111111111111 0.111111111111111 0.111111111111111 0.111111111111111 0.111111111111111)  
  (0.111111111111111 0.111111111111111 0.111111111111111 0.111111111111111 0.111111111111111 0.111111111111111 0.111111111111111 0.111111111111111 0.111111111111111)  
  (0.000750750750750751 0.000750750750750751 0.000750750750750751 0.993993993993994 0.000750750750750751 0.000750750750750751 0.000750750750750751 0.000750750750750751 0.000750750750750751)  
  (0.000750750750750751 0.000750750750750751 0.000750750750750751 0.993993993993994 0.000750750750750751 0.000750750750750751 0.000750750750750751 0.000750750750750751 0.000750750750750751)  
  (0.111111111111111 0.111111111111111 0.111111111111111 0.111111111111111 0.111111111111111 0.111111111111111 0.111111111111111 0.111111111111111 0.111111111111111)  
  (0.111111111111111 0.111111111111111 0.111111111111111 0.111111111111111 0.111111111111111 0.111111111111111 0.111111111111111 0.111111111111111 0.111111111111111)  
  (3.14851547495356e-05 3.14851547495356e-05 3.14851547495356e-05 3.14851547495356e-05 3.14851547495356e-05 3.14851547495356e-05 3.14851547495356e-05 3.14851547495356e-05 0.999748118762004)) 
 ((0.111111111111111 0.111111111111111 0.111111111111111 0.111111111111111 0.111111111111111 0.111111111111111 0.111111111111111 0.111111111111111 0.111111111111111)  
  (0.111111111111111 0.111111111111111 0.111111111111111 0.111111111111111 0.111111111111111 0.111111111111111 0.111111111111111 0.111111111111111 0.111111111111111)  
  (0.000376647834274953 0.000376647834274953 0.000376647834274953 0.000376647834274953 0.000376647834274953 0.000376647834274953 0.000376647834274953 0.000376647834274953 0.9969868173258)  
  (0.000750750750750751 0.000750750750750751 0.000750750750750751 0.000750750750750751 0.000750750750750751 0.000750750750750751 0.000750750750750751 0.000750750750750751 0.993993993993994)  
  (0.111111111111111 0.111111111111111 0.111111111111111 0.111111111111111 0.111111111111111 0.111111111111111 0.111111111111111 0.111111111111111 0.111111111111111)  
  (0.111111111111111 0.111111111111111 0.111111111111111 0.111111111111111 0.111111111111111 0.111111111111111 0.111111111111111 0.111111111111111 0.111111111111111)  
  (0.000125833647917453 0.000125833647917453 0.000125833647917453 0.000125833647917453 0.000125833647917453 0.000125833647917453 0.000125833647917453 0.000125833647917453 0.99899333081666)) 
 ((0.111111111111111 0.111111111111111 0.111111111111111 0.111111111111111 0.111111111111111 0.111111111111111 0.111111111111111 0.111111111111111 0.111111111111111)  
  (0.000376647834274953 0.000376647834274953 0.000376647834274953 0.498681732580038 0.000376647834274953 0.000376647834274953 0.000376647834274953 0.000376647834274953 0.498681732580038)  
  (0.000376647834274953 0.000376647834274953 0.000376647834274953 0.000376647834274953 0.000376647834274953 0.000376647834274953 0.000376647834274953 0.000376647834274953 0.9969868173258)  
  (0.000376647834274953 0.000376647834274953 0.000376647834274953 0.000376647834274953 0.000376647834274953 0.498681732580038 0.000376647834274953 0.000376647834274953 0.498681732580038)  
  (0.000750750750750751 0.000750750750750751 0.000750750750750751 0.000750750750750751 0.000750750750750751 0.000750750750750751 0.000750750750750751 0.000750750750750751 0.993993993993994)  
  (0.000750750750750751 0.000750750750750751 0.000750750750750751 0.000750750750750751 0.993993993993994 0.000750750750750751 0.000750750750750751 0.000750750750750751 0.000750750750750751)  
  (7.79180302321957e-06 7.79180302321957e-06 7.79180302321957e-06 0.0309334580021817 0.0412420134019012 0.0206249026024622 7.79180302321957e-06 7.79180302321957e-06 0.907160666978339)) 
 ((0.111111111111111 0.111111111111111 0.111111111111111 0.111111111111111 0.111111111111111 0.111111111111111 0.111111111111111 0.111111111111111 0.111111111111111)  
  (0.000251382604323781 0.000251382604323781 0.000251382604323781 0.000251382604323781 0.000251382604323781 0.000251382604323781 0.000251382604323781 0.000251382604323781 0.99798893916541)  
  (0.111111111111111 0.111111111111111 0.111111111111111 0.111111111111111 0.111111111111111 0.111111111111111 0.111111111111111 0.111111111111111 0.111111111111111)  
